{"type":"NeuralNetwork","sizes":[27,128,64,32,16,1],"layers":[{"weights":[],"biases":[]},{"weights":[[-0.31826820969581604,-0.0645551085472107,0.08204486966133118,-0.0010680832201614976,-0.5010503530502319,-0.046390824019908905,-0.28394731879234314,-0.7845928072929382,-0.2118726372718811,-0.5494763255119324,-0.0798749253153801,-0.16813598573207855,-0.06907112151384354,0.06788153201341629,-0.04925471171736717,-0.09020689874887466,0.022864827886223793,0.16540896892547607,-0.024340206757187843,-0.05601945146918297,-0.014460362493991852,-0.03014926053583622,-0.007196333725005388,0.12706349790096283,-0.05286291241645813,-0.05617256462574005,0.15017467737197876],[-0.029376652091741562,0.04193351790308952,0.1842045933008194,-0.0020430535078048706,0.18014539778232574,-0.22914981842041016,-0.18962222337722778,0.287672221660614,-0.22659596800804138,0.11135131120681763,-0.16885952651500702,-0.1308862715959549,-0.11829211562871933,-0.018373195081949234,-0.21415644884109497,-0.18737654387950897,-0.03654903918504715,0.034072909504175186,0.050695791840553284,0.10665515810251236,0.1182011291384697,-0.10871101170778275,-0.18093712627887726,0.08387844264507294,0.03459795191884041,-0.12689512968063354,0.11237357556819916],[0.6346713900566101,2.226848840713501,0.8315210938453674,1.0832102298736572,2.7403159141540527,2.061554193496704,0.14236675202846527,-0.24502608180046082,-0.49300283193588257,-0.9298129081726074,0.3340701460838318,-0.038974612951278687,-0.03182949870824814,0.30384403467178345,-0.49605852365493774,-0.0536523200571537,0.2401071935892105,-0.4960564374923706,-0.05624726414680481,0.275150865316391,0.7469837069511414,-0.6435121893882751,-0.5432252287864685,0.176841139793396,-0.6060750484466553,-0.0007022464415058494,-0.23790843784809113],[-0.18909825384616852,-0.37868091464042664,0.14090678095817566,0.11552031338214874,0.7444974184036255,0.044617705047130585,-0.3243214786052704,0.5371040105819702,-0.09136388450860977,0.0400533564388752,0.143245130777359,0.043161261826753616,-0.038671378046274185,0.008835789747536182,-0.13189345598220825,0.03625774011015892,-0.09416475147008896,0.14487862586975098,0.08245399594306946,-0.2729175090789795,0.08014589548110962,-0.3374016284942627,-0.0538351945579052,-0.26715582609176636,-0.17518630623817444,-0.12327724695205688,-0.1964266002178192],[-0.16900932788848877,-0.5568243861198425,0.014353343285620213,-0.153483048081398,-0.6132574081420898,-0.8072984218597412,-0.14628887176513672,0.14783744513988495,-0.11852759122848511,-0.16282235085964203,0.027880104258656502,-0.04155748710036278,0.04797733202576637,-0.14025218784809113,0.0236221756786108,0.08877742290496826,0.10793330520391464,-0.023917507380247116,0.04893104359507561,0.01353522203862667,-0.07991708070039749,-0.11446262151002884,-0.12782365083694458,0.22637929022312164,0.10861743241548538,0.10293754190206528,0.0914793536067009],[0.41812825202941895,-0.9022938013076782,0.18982869386672974,0.24181205034255981,0.6592011451721191,0.12923699617385864,-0.33324554562568665,1.4610872268676758,-0.4324399530887604,0.06438694894313812,-0.0672084242105484,0.11516812443733215,-0.22271446883678436,-0.13768631219863892,0.026243451982736588,-0.17741887271404266,-0.19916056096553802,0.042923133820295334,0.18962635099887848,-0.03381238505244255,-0.49549463391304016,-0.3105521500110626,-0.09045107662677765,-0.17823420464992523,0.21301227807998657,0.15295420587062836,-0.0771869570016861],[-0.6482530832290649,0.5510193109512329,-0.1916327327489853,-0.2634594440460205,-0.8785854578018188,-0.01735636405646801,0.22398707270622253,-0.8988354802131653,-0.3003171682357788,-0.7065488696098328,0.041026897728443146,0.019269324839115143,-0.26309889554977417,-0.23339834809303284,-0.035878367722034454,-0.06167143955826759,-0.19691093266010284,-0.01517349574714899,0.12261826545000076,0.15834449231624603,-0.33050861954689026,0.06423003226518631,0.2021726369857788,-0.07037103176116943,-0.16222256422042847,-0.3202161490917206,0.1792072355747223],[0.3209322988986969,-1.4644896984100342,0.09042210876941681,0.23731306195259094,0.3672742247581482,0.19492240250110626,-0.07679178565740585,0.8631155490875244,-0.0991564616560936,0.09028748422861099,0.09507273882627487,-0.1504761427640915,-0.1638093888759613,0.12309137731790543,-0.2309533655643463,-0.035257481038570404,0.06263210624456406,-0.005441397428512573,-0.20318904519081116,0.14901407063007355,-0.09900958836078644,0.057202037423849106,0.07000695168972015,0.1247311681509018,0.24146954715251923,0.4776211380958557,0.125762477517128],[-0.3078821003437042,0.9551495909690857,0.25225481390953064,0.34151390194892883,0.21898320317268372,-0.7822291254997253,-0.1906352937221527,0.9632419943809509,-0.4339470863342285,0.5226479768753052,-0.21508033573627472,-0.10544689744710922,-0.021120790392160416,0.2026110142469406,0.023066900670528412,0.02182512730360031,0.16632024943828583,0.06190735474228859,-0.10182918608188629,-0.07722602039575577,0.03800661489367485,-0.14005310833454132,0.0732840821146965,0.1393456906080246,-0.22576311230659485,0.06649982929229736,0.020859351381659508],[-0.23186393082141876,-0.8475349545478821,-0.06571044027805328,0.1394948810338974,0.1603151559829712,0.24082081019878387,-0.38790783286094666,0.17489390075206757,0.04355848953127861,-0.18656620383262634,0.16978976130485535,0.19859272241592407,-0.21040940284729004,0.11920507252216339,-0.13802431523799896,0.000462763593532145,-0.06897711008787155,0.2907807230949402,0.06754492968320847,-0.027661781758069992,-0.15180282294750214,-0.11552958190441132,-0.010530779138207436,0.13445577025413513,-0.03636922314763069,0.27798330783843994,-0.04122202470898628],[0.4781830906867981,-0.548398494720459,0.21438518166542053,0.1926320493221283,0.4771709740161896,-0.051317308098077774,-0.2414780706167221,1.3848261833190918,0.3356107771396637,0.9728979468345642,-0.15277540683746338,-0.016108309850096703,-0.2038707584142685,-0.1988101303577423,-0.022943202406167984,0.11042996495962143,-0.08000276982784271,0.040372058749198914,0.020611748099327087,-0.33313849568367004,0.3046487867832184,-0.03143394738435745,0.1610233336687088,0.08395367115736008,0.037268783897161484,0.5911403298377991,-0.017013108357787132],[-0.572920560836792,-0.367740660905838,-0.037413209676742554,0.08828724175691605,0.13610398769378662,-0.05070265755057335,-0.09324996173381805,0.19951274991035461,-0.19437099993228912,-0.44407328963279724,0.10834214091300964,-0.2231627255678177,-0.17849689722061157,0.0891631692647934,0.06142260506749153,0.1083667129278183,0.04734516143798828,-0.12656408548355103,-0.06665202230215073,-0.1454847902059555,0.08389715850353241,0.22027486562728882,0.23720338940620422,-0.08764869719743729,0.017276663333177567,-0.20697161555290222,0.14717207849025726],[-0.3013502359390259,-0.6168928146362305,-0.07555539160966873,0.2561284899711609,0.35939425230026245,-0.128494530916214,-0.4084140360355377,0.49428296089172363,0.01910918951034546,0.07079743593931198,0.008471889421343803,0.08077556639909744,0.07335738092660904,0.16781572997570038,-0.21203544735908508,-0.1730610728263855,-0.10432570427656174,-0.10064244270324707,-0.07952015846967697,-0.08066903799772263,0.0867040678858757,0.12283740192651749,-0.13876815140247345,0.13507895171642303,0.010396194644272327,-0.25180763006210327,0.03183850273489952],[-0.43160417675971985,-0.6585116982460022,0.06659340113401413,-0.17017149925231934,0.07232900708913803,0.1198846623301506,-0.022159308195114136,-0.06918229907751083,-0.2771771252155304,-0.526435136795044,0.20864039659500122,0.13288775086402893,-0.11481519043445587,-0.207145094871521,0.1553516834974289,0.017548784613609314,-0.18391455709934235,-0.18953169882297516,-0.009276933036744595,-0.18802094459533691,-0.1037520244717598,0.15196003019809723,0.14115837216377258,0.19645442068576813,-0.24606254696846008,-0.20817464590072632,0.0683010146021843],[-0.25511136651039124,-0.37796449661254883,-0.009974401444196701,0.22618669271469116,0.3329981565475464,-0.396416574716568,-0.057709693908691406,0.4035869538784027,-0.16855300962924957,0.14064741134643555,-0.20888957381248474,0.03827601298689842,0.15402689576148987,0.0655381977558136,-0.04884808883070946,0.20325346291065216,-0.07692671567201614,0.09764372557401657,0.1741315722465515,-0.01302456296980381,0.09607144445180893,-0.10359705984592438,0.024857202544808388,0.05035143345594406,-0.12850086390972137,-0.16601352393627167,0.018216045573353767],[-0.36934801936149597,-0.0978991836309433,0.03855158016085625,0.09540057182312012,0.7938123941421509,-0.2739894986152649,-0.18660210072994232,0.7819806933403015,-0.35006123781204224,-0.12067694216966629,0.008297091349959373,-0.10248704999685287,0.17418096959590912,-0.047526948153972626,-0.10943429172039032,-0.11607132852077484,0.20836792886257172,-0.04747200757265091,0.16969887912273407,0.008757694624364376,0.006874856539070606,-0.10910294950008392,-0.214786559343338,-0.09595786780118942,-0.09585598111152649,-0.24378712475299835,-0.060278698801994324],[0.19931535422801971,0.38889917731285095,-0.11941216886043549,0.1628028303384781,-0.6076980233192444,-0.9639102816581726,-0.676986813545227,-1.8739140033721924,-0.36036205291748047,-1.9295270442962646,-0.15296126902103424,-0.2649480700492859,0.005034176167100668,0.19468553364276886,-0.2253894805908203,0.22467482089996338,0.11919347196817398,0.023920398205518723,0.1141858920454979,-0.04124104604125023,-0.1350560486316681,-0.3512752056121826,-0.15707789361476898,-0.18906190991401672,0.3701561987400055,0.5812003016471863,0.06267648190259933],[-0.662706196308136,0.9897624254226685,0.29652613401412964,0.1680128425359726,0.9633004665374756,0.3478235900402069,-0.20315799117088318,0.5627707839012146,-0.45410341024398804,0.023432951420545578,-0.16602838039398193,0.04263538867235184,0.2314121276140213,0.17040985822677612,0.0697353333234787,0.10651527345180511,-0.09294461458921432,0.03571667522192001,0.15447278320789337,-0.38875553011894226,0.22249139845371246,-0.2743634581565857,-0.17836426198482513,-0.11750150471925735,-0.1259014755487442,-0.3663506805896759,-0.012608847580850124],[-0.254933625459671,0.37317609786987305,-0.2886771261692047,-0.27659177780151367,-0.4432142376899719,-0.06553979218006134,0.059034787118434906,-0.607938289642334,0.05991766229271889,-0.4317609369754791,-0.12212389707565308,-0.034532833844423294,-0.3157651424407959,-0.028196949511766434,0.10087098181247711,-0.014555334113538265,-0.31745192408561707,0.2099095731973648,0.20468492805957794,-0.1980077028274536,-0.0985986739397049,-0.07042229920625687,0.12042002379894257,-0.07577526569366455,-0.20873267948627472,-0.09194846451282501,0.08397884666919708],[-0.9519652128219604,-1.2004932165145874,0.8677747249603271,0.8636907935142517,-0.9090213179588318,-2.71982479095459,-2.3081798553466797,1.3357800245285034,-0.08600707352161407,0.10985884070396423,-0.18995124101638794,-0.5267719626426697,-0.024815555661916733,0.21389321982860565,-0.3063962161540985,-0.43159276247024536,0.5262671709060669,-0.3830391764640808,-0.24600493907928467,-0.4472999572753906,2.928225040435791,-0.6716724634170532,-0.5166913270950317,-0.2542511820793152,-0.1412225216627121,0.7862171530723572,0.17727923393249512],[-0.16976507008075714,-1.6773983240127563,0.41545194387435913,0.2513931393623352,0.03144897520542145,0.6718305349349976,0.8016422390937805,-0.13521981239318848,0.15653979778289795,-0.8966555595397949,0.19655656814575195,-0.06436754763126373,-0.1443062275648117,-0.1557489037513733,0.07893557846546173,-0.07048586755990982,-0.5114157199859619,-0.07407162338495255,-0.21761687099933624,0.03277822956442833,0.02181214652955532,-0.002330249408259988,0.0877174660563469,0.05868832767009735,0.6107746362686157,0.23831890523433685,-0.09597008675336838],[-0.050956323742866516,-1.2267848253250122,0.034654807299375534,-0.07924091815948486,0.27956053614616394,0.768217146396637,-0.2877201437950134,0.36696669459342957,-0.4149535894393921,-0.01118369773030281,0.08658493310213089,0.04084237292408943,0.20025517046451569,-0.056400880217552185,-0.07369320839643478,-0.007933010347187519,0.19209949672222137,-0.11535456776618958,0.03610411286354065,0.0727744996547699,-0.1664266288280487,0.07835380733013153,-0.00594149949029088,-0.03442969545722008,-0.01773955300450325,-0.05150531977415085,0.02497744932770729],[-0.11644144356250763,0.46922606229782104,0.04226964712142944,0.2886050343513489,0.015021329745650291,-0.4251561760902405,0.026698870584368706,0.33115965127944946,-0.22504068911075592,0.2762328088283539,-0.18453745543956757,0.038815781474113464,-0.008602670393884182,-0.011387373320758343,-0.09021706134080887,-0.07054675370454788,0.10098625719547272,-0.053566500544548035,-0.0671975165605545,-0.19246990978717804,0.18112972378730774,-0.008487536571919918,-0.04647321626543999,0.01436073798686266,-0.1950758695602417,0.29494765400886536,0.11391631513834],[-0.11732115596532822,-0.356982946395874,-0.059344466775655746,0.12690183520317078,-0.22641898691654205,-0.35978472232818604,-0.3316696882247925,-0.14587341248989105,0.027554452419281006,-0.22146527469158173,-0.04773680120706558,-0.016580067574977875,-0.019406814128160477,-0.08089468628168106,0.08658165484666824,0.10775236785411835,-0.14376571774482727,-0.00025409969384782016,-0.1642591655254364,0.031441766768693924,0.2117299735546112,-0.012334971688687801,0.04316868260502815,0.03310859203338623,-0.14169350266456604,-0.04374595731496811,0.06615346670150757],[-0.16328923404216766,-0.7922688722610474,-0.1274605095386505,0.09533947706222534,0.08605697005987167,-0.1914997100830078,0.12909738719463348,0.18116512894630432,-0.3793988525867462,-0.41119661927223206,-0.19995826482772827,-0.03331443667411804,-0.22260868549346924,-0.10998997092247009,-0.17762978374958038,0.019230259582400322,0.09212426841259003,-0.12415847927331924,0.07575933635234833,0.21208730340003967,-0.07399100065231323,-0.16930051147937775,0.11712443083524704,0.23947139084339142,0.17926818132400513,-0.046258941292762756,0.060487084090709686],[-0.5074755549430847,-0.21702690422534943,-0.27815473079681396,0.04180595651268959,-0.4825827479362488,-0.5887210369110107,0.09424867480993271,0.29805052280426025,-0.40689006447792053,0.08697577565908432,-0.27206355333328247,0.16413776576519012,-0.2583305537700653,0.014492989517748356,-0.24763450026512146,0.22129759192466736,-0.12087977677583694,0.002188644837588072,-0.0027680792845785618,0.14130564033985138,0.12357623130083084,0.10962662100791931,0.0863240510225296,0.25076544284820557,-0.23162639141082764,-0.18985110521316528,-0.13455983996391296],[0.2006886899471283,-0.8596264123916626,-0.14820356667041779,-0.005863970145583153,-0.3382425308227539,-0.07519592344760895,-0.24799461662769318,-0.22173091769218445,-0.04666779935359955,-0.13498461246490479,0.1112535372376442,-0.03979198634624481,-0.10554288327693939,0.1311471313238144,-0.1484738290309906,-0.16269859671592712,0.0025159213691949844,-0.13657870888710022,0.07023566216230392,-0.051965631544589996,-0.18714523315429688,-0.135798841714859,0.008185110054910183,-0.11910095810890198,-0.29277294874191284,-0.0012191318674013019,0.09520572423934937],[-0.1503647416830063,-0.7791691422462463,-0.16107983887195587,0.13850918412208557,0.03588808327913284,-0.20326030254364014,-0.2543543577194214,0.07388392090797424,-0.4146497845649719,-0.1285058856010437,-0.11134491115808487,-0.012530779466032982,-0.09236323833465576,-0.014290200546383858,-0.1499508023262024,0.21780388057231903,0.06522544473409653,0.16129936277866364,-0.0954623818397522,-0.2216809242963791,-0.136445090174675,-0.18346482515335083,-0.04964376613497734,0.27483218908309937,-0.23817814886569977,0.2122427076101303,-0.20292897522449493],[0.4025310277938843,-1.0149281024932861,-0.008156845346093178,0.03976110368967056,-0.16124925017356873,-0.5524091124534607,-0.08310408890247345,0.4699411690235138,0.3701944053173065,0.37252792716026306,0.0539444275200367,-0.05368584394454956,-0.0799613669514656,0.1185072660446167,-0.06230989843606949,-0.22409872710704803,0.23990406095981598,-0.1487945169210434,-0.10720006376504898,-0.12280067801475525,0.2899191975593567,-0.10132290422916412,0.07277987152338028,-0.09605784714221954,-0.009287080727517605,0.1865217089653015,-0.033362988382577896],[-0.17975828051567078,-0.7793859243392944,0.19079554080963135,0.03789876028895378,-0.16662034392356873,-0.1894199401140213,0.07508507370948792,0.3798370063304901,-0.24704501032829285,0.006840640213340521,-0.12816371023654938,-0.1817711591720581,0.15083351731300354,0.13701678812503815,-0.10464155673980713,0.0853753387928009,-0.013442659750580788,0.04930315166711807,-0.16881121695041656,-0.04731801524758339,0.09148640185594559,-0.043410953134298325,0.07515757530927658,0.15860311686992645,0.03587974235415459,-0.04789871349930763,0.01617891527712345],[-0.2727595567703247,-0.8241444230079651,-0.3389917314052582,0.016354823485016823,-0.7911320924758911,-1.1972851753234863,-0.2663796544075012,-0.07262369245290756,-0.436330109834671,0.06964653730392456,-0.15017512440681458,0.03138769418001175,-0.11827459186315536,-0.019595075398683548,-0.04017351195216179,0.23254427313804626,-0.06906329840421677,0.1305965930223465,-0.06774456799030304,-0.05515848472714424,0.07273996621370316,0.10081695765256882,0.12994630634784698,0.22337205708026886,-0.20145945250988007,0.4491307735443115,0.19352546334266663],[-0.20149244368076324,-1.6867948770523071,-0.31636542081832886,-0.47173169255256653,0.31940940022468567,2.1392951011657715,-0.6260477304458618,0.15591077506542206,-1.3173960447311401,-0.6641354560852051,0.2571641802787781,0.004825416952371597,0.43441063165664673,0.15246976912021637,0.20343977212905884,-0.20656967163085938,0.025823114439845085,0.02888033352792263,0.11965998262166977,-0.13315607607364655,-0.4870501160621643,0.14667801558971405,-0.16995911300182343,0.2635033428668976,0.011283336207270622,-0.5120609998703003,-0.097597137093544],[-0.3041573762893677,-2.0946619510650635,-0.09729597717523575,0.11422904580831528,0.9260509014129639,1.461788296699524,-0.7309432625770569,-0.16230349242687225,-0.28511491417884827,0.17467132210731506,-0.26615655422210693,-0.06706146895885468,0.1471722275018692,0.13018205761909485,-0.23711295425891876,0.3855360150337219,0.12118330597877502,0.10751377046108246,0.1438400000333786,-0.052207477390766144,-0.5138591527938843,-0.07803667336702347,-0.13733592629432678,0.1426907479763031,-0.3286280930042267,-0.06772594898939133,-0.2541893720626831],[0.23784005641937256,-0.8540933132171631,-0.1843101978302002,0.18084444105625153,0.07476019114255905,-0.13480646908283234,-0.31023842096328735,-0.009003549814224243,0.01677200384438038,0.3412278890609741,-0.09809473901987076,-0.10769157111644745,-0.1528971791267395,0.03760669380426407,-0.17549283802509308,-0.02690095081925392,0.040886733680963516,-0.13087493181228638,0.04474761709570885,-0.3879595100879669,-0.2148245871067047,-0.21415770053863525,-0.3376938998699188,-0.09309191256761551,-0.2450813204050064,0.5976726412773132,-0.19789758324623108],[1.453011155128479,3.237879514694214,-0.36388394236564636,-0.160337895154953,-1.928407073020935,-1.744813084602356,-1.1488966941833496,2.683724880218506,0.028312059119343758,0.20583190023899078,0.6430192589759827,-0.06433665752410889,0.21378439664840698,-0.04790094122290611,0.35931986570358276,-0.11498687416315079,-0.09446984529495239,0.16241973638534546,0.0842871144413948,-0.160999596118927,-0.753356397151947,-0.06712484359741211,-0.16999687254428864,-0.5722818970680237,0.2929372489452362,-1.735769510269165,0.14613106846809387],[0.0061135850846767426,-1.6764800548553467,0.016031784936785698,0.34523630142211914,0.4129185080528259,0.28473883867263794,-0.18309147655963898,0.2800683081150055,0.08878012001514435,0.2136274129152298,-0.0011536006350070238,0.016748229041695595,-0.09678281843662262,0.20208239555358887,-0.11145856231451035,0.19115050137043,-0.043712642043828964,0.07558571547269821,-0.0006134536815807223,-0.09637853503227234,-0.12091091275215149,-0.3244587182998657,0.026352733373641968,0.33050474524497986,-0.1585027277469635,0.19242626428604126,-0.019162030890583992],[0.5826982259750366,-1.7583290338516235,0.2666476368904114,0.046838194131851196,0.10184714943170547,-0.16485492885112762,0.361920565366745,0.6988256573677063,-0.08502431958913803,0.31953176856040955,0.030494200065732002,-0.09729474782943726,-0.027547642588615417,0.23257848620414734,0.1049519032239914,-0.08499772101640701,0.07909522205591202,-0.1575784534215927,0.09388938546180725,-0.06480757147073746,-0.00041787963709793985,0.20287132263183594,0.03018731065094471,-0.050958845764398575,-0.23272742331027985,0.42249685525894165,-0.0423208512365818],[0.08329857140779495,-1.3067071437835693,0.23953251540660858,0.17257961630821228,-0.07915212213993073,0.25854891538619995,0.33203279972076416,0.3494895398616791,-0.09188032895326614,-0.3364080786705017,0.0012750320602208376,0.06558238714933395,-0.11320500820875168,0.03595665842294693,-0.057919133454561234,-0.07790413498878479,-0.2967967092990875,0.090086430311203,-0.36980918049812317,-0.02237510122358799,-0.15201331675052643,-0.027194857597351074,0.13027310371398926,-0.07042255252599716,0.07058565318584442,0.36798927187919617,0.13061530888080597],[0.5237110257148743,-1.2770005464553833,0.30761560797691345,0.25391486287117004,0.16580429673194885,-0.39386555552482605,0.11012911796569824,0.7073262333869934,0.02488870732486248,0.6538366079330444,-0.039794228971004486,0.06925207376480103,-0.07882454991340637,0.06402409076690674,0.1201692521572113,-0.13418982923030853,0.12261337041854858,0.12386448681354523,0.09895342588424683,-0.19440323114395142,0.24980026483535767,-0.23339292407035828,-0.14780786633491516,-0.2017272710800171,-0.10705988109111786,0.29651695489883423,-0.16866257786750793],[-0.03414374962449074,-0.8683887124061584,-0.4931459128856659,-0.4871233403682709,-0.9518854022026062,-0.6727334260940552,0.06902234256267548,-0.4121473431587219,0.31179606914520264,-0.5713228583335876,-0.12542268633842468,0.28539904952049255,0.22426995635032654,-0.07381885498762131,-0.12154557555913925,0.040054019540548325,-0.3845469653606415,0.18743491172790527,0.17658786475658417,-0.0912504717707634,-0.22604778409004211,-0.035389285534620285,-0.11922169476747513,0.07375632971525192,-0.04929381608963013,-0.16945499181747437,0.03333957493305206],[-0.2553221583366394,-1.8301564455032349,-0.30363163352012634,0.08824003487825394,0.5847175717353821,1.2017585039138794,-0.5904641151428223,-0.17426714301109314,-0.21802251040935516,-0.036094557493925095,0.08611447364091873,0.15689465403556824,0.25572964549064636,0.32197117805480957,0.1031871810555458,0.02214629575610161,0.11399620771408081,-0.10332199186086655,0.24554184079170227,0.05400131642818451,-0.16936248540878296,-0.14281854033470154,-0.3960668742656708,0.17548690736293793,-0.25807738304138184,-0.049034975469112396,-0.1330053061246872],[-0.3411816656589508,-0.7491356730461121,-0.5674816966056824,-0.5588431358337402,-1.1007754802703857,-0.9486231803894043,-0.21009811758995056,0.08459807932376862,0.30272454023361206,-0.2582145631313324,-0.1794852465391159,0.1408243030309677,0.15646609663963318,-0.09205395728349686,-0.16948305070400238,0.011220782995223999,-0.03986186906695366,0.08295807987451553,-0.24235719442367554,-0.10802697390317917,-0.023807035759091377,0.08531364798545837,0.21200723946094513,0.23881317675113678,0.01367754302918911,-0.304811030626297,-0.15933935344219208],[-0.4875812530517578,-0.10343503952026367,-0.12575995922088623,-0.0044795190915465355,-0.6280454993247986,-0.6616585850715637,-0.2878492772579193,-0.18849465250968933,-0.06386516988277435,-0.2658234238624573,-0.07504334300756454,-0.030883651226758957,0.0298465583473444,0.07239416986703873,0.082942895591259,-0.24220064282417297,0.07830454409122467,-0.06597256660461426,0.11654971539974213,0.14277222752571106,0.09432201087474823,0.17193816602230072,-0.2054782509803772,0.06215384602546692,-0.05331635847687721,-0.16186732053756714,-0.11434780061244965],[-0.4770931601524353,0.7158815264701843,-0.026992175728082657,0.0656333714723587,0.7334675192832947,-0.14136530458927155,-0.21431541442871094,0.40234866738319397,-0.024932188913226128,0.1920756846666336,-0.1640920788049698,-0.01936659961938858,0.01306828111410141,0.022242965176701546,-0.05195017531514168,0.11012862622737885,0.049890972673892975,0.05574743077158928,0.10902021080255508,-0.1540585607290268,-0.08480250090360641,-0.2206880897283554,-0.1499929428100586,-0.14852574467658997,-0.1314477026462555,0.04728423058986664,0.15166495740413666],[-1.7726778984069824,-4.58492374420166,-0.02805483527481556,-1.1565769910812378,-4.825273513793945,-4.2234296798706055,0.40683749318122864,0.6773809790611267,-0.08605854213237762,0.9553922414779663,0.6016791462898254,0.29419782757759094,0.2509784996509552,0.5735868811607361,0.3003869950771332,0.40869367122650146,0.35103243589401245,0.13178956508636475,0.4257892668247223,0.6432303190231323,-0.3235286474227905,0.12709492444992065,0.14646048843860626,0.3455652594566345,0.004434925504028797,-0.12050802260637283,0.1951034665107727],[-0.38150015473365784,0.7756994366645813,0.043312542140483856,0.03698522597551346,-0.23975808918476105,-0.35173654556274414,-0.3270348906517029,-0.2988482713699341,-0.18736007809638977,-0.22994691133499146,-0.22149987518787384,0.1374366134405136,-0.24907928705215454,-0.05059914290904999,0.16943079233169556,-0.12625761330127716,-0.0835675373673439,0.22156302630901337,0.11395620554685593,-0.38451704382896423,-0.08160950988531113,-0.19699709117412567,0.0034673907794058323,-0.14442555606365204,0.04850512742996216,-0.17534488439559937,0.11761500686407089],[-0.3230608105659485,-0.9442338943481445,-0.047045305371284485,0.13872374594211578,0.6480599045753479,0.38844048976898193,-0.26666659116744995,0.5332047939300537,-0.15870527923107147,-0.20898549258708954,-0.08366132527589798,-0.1226164773106575,0.03339552879333496,-0.006807512138038874,0.07737688720226288,0.14935168623924255,0.01664746180176735,0.03663264214992523,0.08884395658969879,0.00434811320155859,-0.313474178314209,-0.19722162187099457,0.20406897366046906,0.24817612767219543,0.0380508191883564,0.15962953865528107,0.12362567335367203],[-0.8057087063789368,0.4945783019065857,-0.23866817355155945,-0.198516383767128,-0.5072711110115051,0.24798469245433807,-0.1329808086156845,-0.6257490515708923,-0.10148055106401443,-1.0826164484024048,0.00011926180741284043,-0.09698612242937088,0.04204744100570679,-0.13165085017681122,-0.23787792026996613,-0.15584279596805573,0.11559707671403885,-0.141424760222435,0.12775857746601105,0.08039102703332901,0.27678048610687256,-0.08852718025445938,0.13996607065200806,0.03141807019710541,-0.22937528789043427,-0.380135715007782,-0.16820400953292847],[0.1118261069059372,-0.9352245926856995,-0.20913542807102203,-0.11878682672977448,-0.10311451554298401,0.019722407683730125,0.100751593708992,0.3130722641944885,-0.19469477236270905,-0.16072461009025574,0.04525899887084961,-0.20790967345237732,0.019759099930524826,0.1268032342195511,0.13706406950950623,0.20563842356204987,0.1459326148033142,0.044639647006988525,0.05728607252240181,-0.14011718332767487,-0.2667904794216156,-0.10606732219457626,-0.07231950759887695,-0.07494860142469406,-0.010850722901523113,-0.11830538511276245,-0.012834638357162476],[-0.7224848866462708,0.4696757197380066,-0.09986241906881332,0.26438915729522705,-0.2611546516418457,-0.3166555166244507,-0.10458996891975403,-0.6684732437133789,-0.5645232796669006,-0.6119852066040039,0.05342607572674751,0.05142148584127426,0.04233579337596893,-0.12474200874567032,0.044844869524240494,-0.06075071170926094,0.06491342186927795,0.14789937436580658,-0.1445472687482834,-0.03838006779551506,0.039752524346113205,-0.04270179197192192,0.11304458230733871,-0.09390546381473541,-0.09134091436862946,-0.04017619043588638,0.10665637254714966],[-0.8476993441581726,0.9596879482269287,-0.07047595828771591,-0.351716011762619,0.24111491441726685,0.14101542532444,-0.39305973052978516,-0.5998368263244629,-0.04478113353252411,-0.344058096408844,-0.08134937286376953,-0.08941567689180374,-0.12857574224472046,0.12911023199558258,-0.17899189889431,0.04428936913609505,0.04254711791872978,-0.01332066673785448,-0.1764480322599411,-0.07177571207284927,0.1466294378042221,-0.16257846355438232,0.06663934886455536,0.21501050889492035,0.2063838541507721,-0.23383580148220062,-0.11921720206737518],[-0.8505151867866516,0.8963293433189392,0.03220805153250694,-0.27644699811935425,-0.26640141010284424,-0.02133331447839737,-0.1135571226477623,-0.03993014618754387,-0.16027005016803741,-0.23517362773418427,-0.13871771097183228,0.10345982760190964,-0.2791685163974762,-0.0063082380220294,-0.025674840435385704,0.18298743665218353,0.03976514935493469,0.0998535230755806,0.15564469993114471,0.13754110038280487,-0.09776368737220764,-0.19918009638786316,0.11305516213178635,0.0658932700753212,-0.15873320400714874,-0.43157199025154114,0.0051031517796218395],[-0.02800820581614971,-0.4524862468242645,0.1064973920583725,0.016064591705799103,0.840041995048523,0.6630706787109375,0.2603200674057007,0.6197904348373413,0.372831255197525,0.3770504593849182,0.15763869881629944,-0.4634559154510498,0.022619180381298065,-0.20475132763385773,-0.08460091054439545,-0.12400024384260178,0.04110870882868767,-0.24021291732788086,-0.041775450110435486,-0.12281247973442078,0.03801611065864563,-0.10450176149606705,0.1284342110157013,0.03058166801929474,-0.23850056529045105,0.1302221417427063,-0.025046557188034058],[-0.6305159330368042,0.4691828787326813,-0.1605035811662674,-0.03459759056568146,-0.7225713729858398,-0.8041723370552063,-0.16441307961940765,-0.6318305730819702,-0.29588067531585693,-0.3116554021835327,0.14419403672218323,0.06913260370492935,0.037501443177461624,0.034417517483234406,-0.00007145772542571649,0.05383449047803879,-0.1012975350022316,0.21312493085861206,-0.06362999975681305,0.1642274111509323,-0.38711705803871155,-0.1834413707256317,0.0914798155426979,0.011189556680619717,-0.0003079215530306101,-0.3838260769844055,0.016734998673200607],[-0.7672866582870483,-1.9654476642608643,0.38888785243034363,0.10523954033851624,0.9811420440673828,1.2137221097946167,1.0743125677108765,-0.7337243556976318,0.03418489173054695,-0.7857332825660706,0.09008091688156128,-0.04794304445385933,-0.07182130217552185,-0.04786808416247368,0.02787867560982704,0.052273210138082504,-0.13493162393569946,-0.03298225998878479,-0.05205759406089783,0.09291812777519226,0.004965761210769415,0.07281084358692169,0.0908842608332634,0.13658407330513,0.13049663603305817,0.8264021873474121,-0.03695257753133774],[0.9908918738365173,-1.2116724252700806,0.38331469893455505,0.5387301445007324,2.2044689655303955,-0.5927824378013611,-0.6624875664710999,2.893580436706543,-0.5665681958198547,2.0017542839050293,-0.2560620605945587,-0.18131573498249054,-0.14025191962718964,-0.4505087733268738,-0.23105520009994507,-0.7927390933036804,-0.8031002879142761,0.079635851085186,-0.047169625759124756,-0.20159408450126648,1.2890125513076782,-0.348141610622406,-0.43473565578460693,-0.10241597890853882,0.0929858610033989,1.695651650428772,-0.15398773550987244],[-0.4766247272491455,0.08642939478158951,0.08020520210266113,0.2006339728832245,-0.17514801025390625,-0.2296917736530304,-0.2219729721546173,0.43544670939445496,-0.25390222668647766,0.03627306967973709,-0.20684128999710083,-0.10056787729263306,-0.03196953609585762,-0.16650180518627167,0.04211628437042236,0.026494381949305534,-0.09527883678674698,-0.27187028527259827,-0.08320518583059311,-0.1076618954539299,-0.15215890109539032,0.15898756682872772,0.01906944252550602,-0.1211448460817337,0.09480799734592438,-0.021359538659453392,-0.027373552322387695],[-0.5775248408317566,-2.2667224407196045,0.3464581370353699,0.3614819049835205,1.3454813957214355,0.6498228311538696,0.8749073147773743,-0.12571704387664795,0.3069300949573517,-0.39651191234588623,-0.1474810391664505,-0.08740869909524918,-0.3292520344257355,0.07448336482048035,0.13173243403434753,-0.1864483505487442,-0.06885802000761032,-0.15136826038360596,-0.040032293647527695,0.05492199584841728,0.10765887796878815,0.015652820467948914,0.23898518085479736,0.03921400383114815,-0.11129992455244064,0.5020108819007874,0.14848721027374268],[0.6967536807060242,-0.39164572954177856,0.07338038831949234,0.15091490745544434,0.47244733572006226,-0.4152362048625946,-0.07747495919466019,0.8723137974739075,-0.03883044794201851,0.7473867535591125,0.008357656188309193,-0.1302725374698639,-0.16424743831157684,-0.01706138625741005,0.2161557823419571,-0.4059424102306366,-0.02759304828941822,0.02337942086160183,-0.1583154797554016,-0.3728146255016327,0.16218729317188263,-0.10340007394552231,-0.007307012099772692,-0.1152353584766388,0.052790943533182144,0.5824439525604248,-0.2571907937526703],[-1.7182705402374268,1.9318528175354004,-0.528701901435852,-0.5976877808570862,-0.8261002898216248,0.5810768604278564,0.18402205407619476,-0.9085863828659058,0.22870583832263947,-0.2192859649658203,-0.057282403111457825,-0.39002475142478943,-0.538946807384491,-0.21473249793052673,-0.15722790360450745,-0.12339406460523605,-0.2146376073360443,0.05052170529961586,-0.09034162759780884,0.25938212871551514,-0.0013343369355425239,0.01735389046370983,0.1708390712738037,0.09414158016443253,-0.12898659706115723,-1.1593172550201416,-0.08745000511407852],[-0.3519222140312195,-0.6528803110122681,0.12344641238451004,0.17553770542144775,0.6132626533508301,0.36499613523483276,-0.2841702103614807,0.38626933097839355,-0.2307099997997284,-0.03674101084470749,0.10623462498188019,-0.20795585215091705,0.12186864763498306,-0.02608313411474228,0.11630675941705704,-0.008159955963492393,0.16517774760723114,-0.11770151555538177,-0.026226911693811417,-0.048440635204315186,-0.0489184744656086,-0.09367094933986664,-0.2216152399778366,-0.14401030540466309,-0.10441526770591736,-0.04039310663938522,-0.16259686648845673],[-0.06807225197553635,-0.1884814351797104,-0.5039176940917969,-0.2276477962732315,-0.45794010162353516,0.6340764760971069,-0.00449335016310215,-1.562909722328186,-0.3532876670360565,-1.3293429613113403,0.20522722601890564,-0.04491531848907471,-0.023376692086458206,-0.12698125839233398,0.3028029501438141,-0.34013551473617554,-0.1793801188468933,-0.03023008070886135,-0.05495700240135193,0.2497338056564331,0.06141025573015213,0.32490354776382446,0.04238221049308777,0.16699174046516418,-0.4404139518737793,0.009942300617694855,-0.21724027395248413],[-0.9931358695030212,1.3464646339416504,0.051465701311826706,-0.024242091923952103,1.188187837600708,0.9936559200286865,0.2553311884403229,0.17146967351436615,-0.3402535915374756,-0.7476606965065002,0.08336690068244934,-0.12068456411361694,-0.12643751502037048,-0.004700182471424341,-0.23533566296100616,-0.024883035570383072,-0.17952382564544678,-0.03436353802680969,-0.08740938454866409,-0.2887989580631256,0.0801500529050827,0.18558569252490997,0.33850985765457153,0.06740214675664902,-0.04364423081278801,-0.4550939202308655,0.04772167652845383],[-0.743186891078949,0.6479150652885437,-0.10904709249734879,-0.09050174802541733,0.5075686573982239,0.4441814124584198,-0.15566670894622803,-0.22880789637565613,-0.24577325582504272,-0.2638024389743805,0.22898314893245697,-0.19482629001140594,-0.062045007944107056,-0.06666702032089233,-0.07523591816425323,0.027028819546103477,0.12761126458644867,-0.07644017040729523,-0.15709790587425232,-0.18064294755458832,-0.04399146884679794,-0.12956899404525757,-0.16594474017620087,0.09968294948339462,-0.007093692664057016,-0.3035317361354828,-0.0017268580850213766],[-0.3143984079360962,-1.2199444770812988,0.2881597578525543,0.26769861578941345,0.9358665347099304,0.43054819107055664,0.021057993173599243,0.5969812870025635,0.32444635033607483,-0.017391225323081017,0.04608873277902603,-0.20951561629772186,-0.05876339226961136,-0.13063690066337585,-0.09577468037605286,0.03356366977095604,0.2395647019147873,-0.3165612816810608,-0.0900183692574501,0.1260523945093155,0.2855633795261383,0.1711062788963318,0.17117422819137573,-0.08692567050457001,0.06322439759969711,-0.17914246022701263,0.055765554308891296],[0.2697365880012512,-0.8674371838569641,-0.05335932597517967,-0.023769736289978027,-0.30143675208091736,-0.011589075438678265,-0.21775992214679718,0.4772135019302368,-0.042888060212135315,-0.009283649735152721,0.20095966756343842,-0.22075745463371277,-0.16129589080810547,0.16776174306869507,-0.14741745591163635,0.10458394885063171,0.19158178567886353,-0.08197574317455292,0.12863841652870178,0.20569591224193573,-0.05085553973913193,-0.12074989825487137,-0.07860424369573593,-0.0748329758644104,0.110493503510952,0.15095336735248566,-0.13648976385593414],[-0.4411429166793823,0.2833684980869293,0.01620601862668991,0.13370880484580994,0.576959490776062,0.5146828889846802,-0.42014187574386597,0.08650293946266174,-0.16708387434482574,0.07011758536100388,-0.022919457405805588,0.0313379243016243,-0.1372775435447693,-0.018718857318162918,0.0585104338824749,0.10308379679918289,-0.1320481151342392,0.20229803025722504,-0.05257357284426689,-0.16558046638965607,-0.06352891772985458,-0.03641081601381302,0.01738821528851986,0.13961903750896454,0.19311641156673431,0.06300809234380722,0.20498424768447876],[0.3151707053184509,-0.7951284646987915,0.11733928322792053,-0.07098322361707687,-0.5431531071662903,-0.38602057099342346,0.2152242362499237,0.47271114587783813,-0.37730687856674194,0.12766213715076447,0.06370558589696884,-0.17497973144054413,-0.07286695390939713,-0.23479928076267242,-0.2688887119293213,-0.01503997202962637,-0.10894481837749481,0.010006008669734001,-0.26903387904167175,0.19517573714256287,0.040507879108190536,0.19159334897994995,-0.038343168795108795,-0.08347510546445847,-0.2251972109079361,0.1611868441104889,-0.07064421474933624],[-0.39811986684799194,0.18859237432479858,-0.1411673128604889,-0.33045095205307007,-0.6296305060386658,0.5450416207313538,0.1407652646303177,-0.9138743281364441,-0.10623478144407272,-1.098538875579834,-0.039092931896448135,0.2135958969593048,0.014429496601223946,-0.17725692689418793,0.19270789623260498,-0.14721910655498505,0.011128654703497887,0.06491399556398392,0.1126752570271492,0.04388894513249397,0.048345692455768585,0.2557218670845032,0.159170463681221,0.011158960871398449,-0.3335781693458557,-0.31352370977401733,-0.19232915341854095],[-0.29928362369537354,-0.11865545064210892,-0.3213516175746918,0.010044907219707966,-0.023661768063902855,0.21373037993907928,-0.2141815572977066,-0.5743269920349121,-0.21711668372154236,-0.6284290552139282,-0.06883246451616287,-0.06327325105667114,0.07561283558607101,-0.2125205248594284,0.10613134503364563,0.021418342366814613,-0.18877814710140228,0.13134221732616425,-0.3108617663383484,-0.1685185432434082,0.23442307114601135,0.13127997517585754,-0.10247775912284851,0.1754361093044281,-0.10687976330518723,0.06263750046491623,-0.16592705249786377],[0.229166179895401,-1.310680866241455,0.08464378863573074,-0.1032046526670456,-0.7965167760848999,-0.1876961886882782,0.23660193383693695,-0.23724482953548431,0.034154824912548065,-0.314405620098114,0.14901858568191528,0.1664443016052246,-0.01901528798043728,0.01638561300933361,0.09308701008558273,0.17080636322498322,0.10566990822553635,-0.03596126288175583,-0.25822290778160095,0.0842018574476242,0.02469909004867077,0.3139987587928772,-0.053656063973903656,0.03296082466840744,0.05810179188847542,0.21069985628128052,-0.22654379904270172],[-0.39742371439933777,0.05022532865405083,-0.019267825409770012,-0.0574764609336853,-0.38456985354423523,-0.7978594899177551,-0.12539948523044586,-0.8738593459129333,-0.48249590396881104,-0.8854687213897705,0.050618886947631836,0.11418761312961578,0.21482428908348083,0.19194036722183228,0.125436931848526,0.06223427876830101,0.008053270168602467,-0.16935110092163086,0.17414726316928864,0.06759276986122131,-0.022591933608055115,0.037382643669843674,-0.21462585031986237,-0.01995360292494297,-0.06984367221593857,-0.13272102177143097,0.02869110181927681],[0.05016028508543968,-0.628803014755249,0.07810329645872116,0.07966158539056778,0.17215092480182648,0.4210962951183319,0.2122838944196701,0.4237843155860901,0.29745563864707947,0.526418149471283,0.10430386662483215,-0.20459415018558502,-0.03442806005477905,-0.2219902127981186,-0.0412868894636631,-0.01668025553226471,-0.03512061387300491,-0.2385672628879547,-0.013630027882754803,0.015743594616651535,0.1031750813126564,0.11203775554895401,0.14952941238880157,-0.14033536612987518,-0.1910017877817154,0.1296350359916687,-0.11413922905921936],[-0.4470411539077759,0.8860538005828857,0.048491235822439194,-0.04027731716632843,0.6897916793823242,0.21098677814006805,-0.24701730906963348,-0.10963853448629379,-0.16308127343654633,0.3097197413444519,-0.1683894395828247,0.05623866245150566,0.004862860310822725,-0.09664336591959,-0.07843568921089172,0.03209871053695679,-0.16428059339523315,-0.10479047894477844,0.008657285943627357,-0.255391925573349,0.25369152426719666,-0.04817618802189827,-0.0766226202249527,-0.07204954326152802,0.058055076748132706,0.07850009202957153,-0.08869829773902893],[-0.2289871722459793,0.08452069759368896,-0.33300191164016724,-0.1200873851776123,-0.6774226427078247,-0.1104937493801117,-0.03585813194513321,-0.813612163066864,-0.08797395974397659,-0.7441983222961426,-0.17034418880939484,-0.06205315515398979,0.02788776345551014,-0.04861030355095863,0.050236091017723083,-0.2422630935907364,-0.22643959522247314,0.18756717443466187,0.1337517946958542,-0.10589500516653061,0.007071636151522398,-0.013431083410978317,0.05424555391073227,-0.04793686419725418,-0.10027266293764114,0.03510396555066109,-0.08507594466209412],[-0.035526152700185776,0.08589471131563187,0.011844608001410961,0.1621517688035965,0.012782635167241096,-0.47531554102897644,-0.34976091980934143,0.644305408000946,-0.3362954556941986,0.48893675208091736,-0.11066202819347382,-0.13039852678775787,0.02402743510901928,-0.044169116765260696,-0.10442963242530823,-0.10891422629356384,0.1252228021621704,0.03401666134595871,-0.15817250311374664,-0.0800858810544014,0.05231311544775963,-0.13865746557712555,-0.25505512952804565,0.09673085063695908,0.15925998985767365,0.39120253920555115,-0.1607389599084854],[-2.6501147747039795,-3.413792133331299,-0.06519687920808792,-0.17686475813388824,4.11677885055542,3.728255271911621,-1.6743619441986084,0.9145057797431946,0.12074477225542068,-0.49523964524269104,0.38468965888023376,0.49743035435676575,0.4018420875072479,0.3413477838039398,0.759598970413208,0.3807046413421631,0.3650730848312378,0.7260900735855103,0.5529082417488098,0.08466403186321259,-1.5981541872024536,0.11120831221342087,0.2225951850414276,-0.34125375747680664,0.9467395544052124,-1.4528998136520386,0.2368367612361908],[-0.5011560320854187,-1.2747160196304321,-0.28373610973358154,-0.532671332359314,-0.9973475933074951,-2.319504737854004,-1.296744465827942,0.018443547189235687,0.2918112576007843,0.9970413446426392,0.0902286022901535,-0.015202060341835022,-0.010528105311095715,0.05037897080183029,0.19902288913726807,-0.2642587423324585,-0.17449048161506653,0.13327465951442719,0.14620822668075562,-0.29450851678848267,-0.06275258213281631,-0.5650067925453186,-0.16441895067691803,-0.28031542897224426,0.060510724782943726,0.34507128596305847,0.3072558641433716],[-0.5108476281166077,-0.06499776244163513,-0.3220144510269165,-0.0042604743503034115,-0.44677773118019104,-0.5377463102340698,0.047502562403678894,-0.44381868839263916,-0.34628674387931824,-0.3915517330169678,-0.11180984973907471,0.1692226231098175,0.18763618171215057,-0.3047507405281067,0.002174040535464883,-0.019467508420348167,-0.26461246609687805,-0.05523580685257912,-0.14249369502067566,-0.08892454206943512,0.00941583514213562,0.1525355726480484,-0.03764060139656067,-0.1090521290898323,0.11414127796888351,-0.33186277747154236,0.035695433616638184],[0.48495790362358093,-1.078737735748291,0.18636971712112427,-0.048645079135894775,0.07907586544752121,0.3602343797683716,-0.20580951869487762,0.19804666936397552,0.058241602033376694,0.35268181562423706,0.24638725817203522,0.19190602004528046,0.19108591973781586,0.07820092141628265,-0.07056369632482529,0.022801749408245087,-0.22919833660125732,0.19425149261951447,-0.13679878413677216,-0.19850380718708038,-0.17350424826145172,-0.3553397059440613,-0.3914557695388794,-0.4095457196235657,0.050563327968120575,0.2974247932434082,-0.10326123982667923],[0.3799571692943573,-0.5674843192100525,-0.016598373651504517,0.20909078419208527,-0.08786286413669586,-0.15378688275814056,0.039346031844615936,0.1927439570426941,0.1563277542591095,0.10305217653512955,-0.14940303564071655,-0.14491970837116241,-0.2244465947151184,0.09064606577157974,-0.103268101811409,-0.29819393157958984,-0.337513267993927,0.0851651132106781,0.12081500142812729,-0.1648242175579071,0.08545780926942825,-0.2474207580089569,-0.2533915936946869,-0.19652889668941498,-0.11221697926521301,0.2587485909461975,-0.21263131499290466],[-0.21881906688213348,-0.29180091619491577,-0.23280510306358337,0.11701665818691254,-0.3099464178085327,-0.38218408823013306,-0.39085695147514343,-0.06426747888326645,-0.20105861127376556,-0.27471861243247986,-0.0765124261379242,0.2529928684234619,0.16576866805553436,-0.037216342985630035,-0.24198757112026215,-0.12418894469738007,-0.07621713727712631,-0.16109953820705414,-0.03047766163945198,-0.1094692125916481,0.1348973959684372,-0.07355892658233643,-0.0764927864074707,-0.13916154205799103,-0.15988944470882416,0.32458731532096863,0.1412002444267273],[-0.42297014594078064,0.4770757555961609,-0.5662521123886108,-0.48250582814216614,-0.8309860229492188,-0.7257963418960571,-0.15892408788204193,-0.8158503174781799,-0.10590910166501999,-0.7966386079788208,-0.03986477851867676,0.008553188294172287,0.011057018302381039,0.07911096513271332,0.12312775105237961,0.18248090147972107,-0.04671640694141388,0.12660935521125793,0.05922183021903038,-0.15934330224990845,-0.23573312163352966,-0.006426401436328888,0.05038405582308769,-0.09400122612714767,-0.03690166398882866,-0.07942523807287216,0.07176121324300766],[-0.15254110097885132,-0.5729019045829773,-0.4146321415901184,-0.3864644765853882,-0.4228726625442505,-0.17301811277866364,-0.36372169852256775,-0.35751861333847046,-0.04632483422756195,-0.6214842796325684,-0.12362628430128098,-0.020904507488012314,0.15217755734920502,0.07989227026700974,-0.02233497053384781,0.0713198110461235,-0.17684058845043182,-0.17804966866970062,-0.1241389811038971,-0.0476921871304512,0.2784578800201416,0.1403774470090866,-0.1415339857339859,0.016359616070985794,-0.21408064663410187,-0.021458491683006287,0.1548641175031662],[0.2577809691429138,-0.5727978348731995,-0.015286896377801895,0.07467072457075119,-0.39962098002433777,-0.6297510266304016,0.044795773923397064,0.2783854901790619,0.12243946641683578,0.04028362035751343,-0.13030686974525452,-0.17014159262180328,-0.21541926264762878,0.012069259770214558,0.07650797069072723,0.049799177795648575,-0.08844061195850372,-0.1665610373020172,0.18464037775993347,-0.1335107535123825,-0.020988253876566887,-0.20902900397777557,-0.2196943461894989,-0.13312232494354248,-0.13489316403865814,-0.005488083232194185,-0.15611565113067627],[-0.39451920986175537,-0.16614797711372375,-0.08162539452314377,0.03359386324882507,-0.21910220384597778,-0.519968569278717,-0.2187107503414154,-0.24032315611839294,-0.018824391067028046,-0.16173198819160461,0.14968407154083252,0.15231475234031677,0.043816324323415756,0.1745762974023819,-0.08137601613998413,-0.19591587781906128,0.12100331485271454,-0.07843996584415436,0.20146514475345612,-0.1732981652021408,-0.037621382623910904,0.1596681922674179,-0.09301802515983582,-0.04461175203323364,-0.06316733360290527,-0.15524083375930786,0.18833065032958984],[-0.25523829460144043,-0.33776214718818665,-0.18494999408721924,0.06750400364398956,-0.08299382030963898,0.3294481635093689,0.1645207703113556,-0.8084529638290405,-0.391891747713089,-0.5069826245307922,-0.13084319233894348,0.1043878048658371,0.0774640291929245,-0.09903357177972794,0.2440289705991745,-0.15807382762432098,-0.10374807566404343,0.05257498100399971,-0.17683444917201996,-0.1917514204978943,0.08451921492815018,0.2855908274650574,0.02982311323285103,0.022722719237208366,0.0034788355696946383,-0.16800057888031006,0.01791234500706196],[-0.4476925730705261,-0.5213184356689453,0.12835434079170227,0.010752234607934952,0.03302861377596855,0.3998067378997803,-0.15037676692008972,-0.1301182210445404,-0.3081497550010681,-0.5369423627853394,-0.11887829005718231,-0.1478491723537445,0.15146541595458984,0.03562235087156296,0.16412614285945892,-0.18621577322483063,-0.13192029297351837,-0.03894713893532753,-0.12561412155628204,0.07230266183614731,-0.08383838832378387,0.23909160494804382,0.03988516330718994,0.007267103996127844,-0.15919096767902374,-0.3681075870990753,-0.14015574753284454],[0.4620411694049835,-1.2012532949447632,0.9475967884063721,0.3163543939590454,-1.259690761566162,-2.675811290740967,-0.3035048246383667,-1.065441608428955,-0.19027955830097198,-0.7571564316749573,0.0342826321721077,0.3429321348667145,0.37975144386291504,-0.3841633200645447,0.11785771697759628,-0.026619451120495796,-0.1684071570634842,-0.09147529304027557,0.21653828024864197,-0.6223660707473755,-0.4432639181613922,-0.2915754020214081,-0.13350670039653778,0.19540302455425262,0.9070687890052795,0.41075941920280457,-0.10038145631551743],[-0.48273688554763794,-0.0015655537135899067,-0.09808682650327682,-0.25887587666511536,-0.46217459440231323,0.0540551133453846,-0.09018795192241669,-0.577486515045166,0.03495641052722931,-0.33937209844589233,0.06415552645921707,-0.1798630654811859,0.12876902520656586,-0.21626518666744232,-0.14295516908168793,0.06059780344367027,-0.09191268682479858,-0.01761028543114662,0.10912298411130905,0.10882304608821869,0.12827660143375397,0.10190699994564056,0.21089529991149902,-0.005746946670114994,0.12995661795139313,-0.45227906107902527,-0.169254332780838],[0.6693336963653564,-1.1858104467391968,1.4887256622314453,0.5315565466880798,-0.2552458643913269,-2.465891122817993,-1.4044294357299805,-0.8238485455513,0.20476578176021576,-0.676049530506134,-0.03447460010647774,-0.28611475229263306,0.3154817223548889,0.17734810709953308,-0.024150488898158073,-0.13458587229251862,0.3367044925689697,-0.2428911030292511,0.3038969039916992,-0.7549430727958679,-0.030311062932014465,-0.6734007596969604,-0.6234247088432312,0.060759272426366806,0.23581789433956146,0.858677327632904,-0.18480511009693146],[-0.2286914885044098,-0.6142180562019348,-0.05170534923672676,-0.018757708370685577,-0.3381025195121765,0.14918488264083862,-0.03562791645526886,-0.6029098033905029,-0.19523702561855316,-0.4698796570301056,0.1654999554157257,0.13233353197574615,-0.06517187505960464,-0.3749125897884369,-0.15116645395755768,-0.19801567494869232,-0.08055447041988373,-0.0006821585120633245,-0.01836388185620308,0.07825819402933121,0.16922996938228607,0.24978463351726532,0.2076912373304367,0.06178507208824158,-0.04554358869791031,-0.11918830871582031,-0.15295346081256866],[0.18666021525859833,-0.4074501097202301,0.22067128121852875,0.2798788547515869,-0.014849868603050709,-0.07420957088470459,0.2570277750492096,0.30882033705711365,-0.04195558652281761,0.0021672057919204235,0.08829068392515182,0.006006313022226095,-0.10115965455770493,-0.05361558124423027,0.10815855115652084,-0.12614603340625763,0.08597368001937866,-0.03794901818037033,0.057443924248218536,-0.013910628855228424,0.11689190566539764,-0.25760912895202637,-0.1916200816631317,-0.11433758586645126,-0.24178370833396912,0.261996865272522,-0.13065390288829803],[0.658436119556427,-1.7503113746643066,0.050936296582221985,0.23474836349487305,0.30263563990592957,0.4178745746612549,0.05605492368340492,0.6953285336494446,-0.10203894972801208,0.040961749851703644,0.06188119575381279,-0.10662217438220978,0.06442888081073761,-0.018721865490078926,0.07990366965532303,0.023178420960903168,-0.20531553030014038,0.12055210769176483,-0.027273375540971756,-0.11067376285791397,-0.3697108030319214,-0.02342313900589943,-0.01750541850924492,0.15835054218769073,0.04580685496330261,0.29194578528404236,0.10591183602809906],[-1.3467531204223633,1.9670860767364502,-0.7213536500930786,-0.8914103507995605,-0.8906086087226868,0.42627212405204773,0.2284117490053177,-1.500838041305542,-0.09521487355232239,-0.6121446490287781,0.40573936700820923,-0.08967903256416321,-0.3473818302154541,-0.07669813930988312,-0.005726230330765247,0.18997366726398468,-0.27062538266181946,0.11975182592868805,0.06040327250957489,0.33920490741729736,-0.6423541903495789,0.19655455648899078,0.12153483182191849,-0.10016914457082748,0.039852116256952286,-0.8555960655212402,-0.06042543053627014],[-0.10506699234247208,-0.7098021507263184,0.23439686000347137,0.2106153517961502,0.8324293494224548,0.15036199986934662,-0.20700782537460327,0.9936485886573792,-0.020244929939508438,0.15141430497169495,0.042330238968133926,-0.024125343188643456,-0.04696435481309891,-0.1872233748435974,-0.23642592132091522,-0.026320654898881912,0.18356959521770477,-0.33980897068977356,-0.18383435904979706,-0.03391871601343155,0.10830055177211761,-0.04991308972239494,-0.23371924459934235,-0.14976349472999573,-0.049380701035261154,-0.08023648709058762,-0.1651526540517807],[-0.6354424953460693,-0.13443523645401,-0.13724905252456665,-0.21440157294273376,-0.7730696797370911,-0.3482995629310608,0.0682162418961525,-0.4550224840641022,-0.24564357101917267,-0.6157164573669434,0.17736870050430298,0.25682151317596436,-0.02238183282315731,-0.2719140946865082,0.04292404651641846,0.10451081395149231,-0.025947872549295425,-0.01674060896039009,-0.17528776824474335,0.13391010463237762,-0.20280691981315613,0.2804202735424042,0.04107252135872841,-0.19961468875408173,-0.21465951204299927,-0.24390427768230438,-0.043442897498607635],[-0.4802525043487549,0.019494717940688133,0.019397733733057976,0.14907799661159515,-0.6992164254188538,-0.7154445648193359,-0.11073827743530273,-0.2843218445777893,-0.32249337434768677,-0.38010793924331665,0.0012943748151883483,0.14650313556194305,-0.19459474086761475,-0.11465980112552643,0.0729060173034668,-0.14851847290992737,0.11310238391160965,-0.1616438329219818,-0.04217411205172539,-0.14778122305870056,0.07709231972694397,0.15610627830028534,0.13529804348945618,-0.17229442298412323,-0.1917184591293335,-0.19471979141235352,-0.13683784008026123],[-0.09831232577562332,-0.9695034027099609,-0.49451160430908203,-0.129935160279274,-0.9168875813484192,-0.7491182088851929,-0.11968278139829636,0.009860805235803127,-0.17422986030578613,0.07683185487985611,-0.15873612463474274,0.20772813260555267,0.030764857307076454,-0.11289341747760773,-0.21824653446674347,0.17569352686405182,-0.23611818253993988,0.18292459845542908,-0.2860744595527649,0.07747230678796768,-0.3097855746746063,0.02723240666091442,-0.009261904284358025,0.17925825715065002,-0.13562335073947906,0.5641767382621765,-0.20585386455059052],[-0.41971102356910706,0.4236283600330353,-0.37661319971084595,-0.1436980664730072,0.06611648201942444,0.6442705988883972,-0.06356828659772873,-0.7025178074836731,-0.008594009093940258,-0.3987136483192444,-0.09147799760103226,-0.12785184383392334,-0.28696107864379883,-0.04141082614660263,-0.007509568706154823,-0.14817547798156738,-0.11534827947616577,-0.03873172402381897,-0.2355932742357254,0.025220204144716263,-0.016948409378528595,0.028499696403741837,0.2725866436958313,0.13025182485580444,-0.07318399846553802,-0.4533405900001526,-0.171461820602417],[-0.36139798164367676,0.01201549917459488,0.22367608547210693,0.1614493876695633,1.3032128810882568,0.630780041217804,-0.16521942615509033,0.12537677586078644,-0.13471747934818268,0.3610057830810547,-0.025330834090709686,0.02150794118642807,0.239841029047966,0.010346238501369953,0.0872042328119278,-0.0771961435675621,-0.26956042647361755,0.13985632359981537,-0.014923596754670143,-0.15559382736682892,0.2623404860496521,-0.13971418142318726,-0.18170636892318726,-0.14265228807926178,-0.13630539178848267,0.2528931796550751,-0.003939272835850716],[-0.3947778046131134,-0.3168461322784424,-0.05813402310013771,-0.30355483293533325,-0.8172290921211243,-0.23980313539505005,-0.0202335175126791,-0.28870102763175964,-0.1796102672815323,-0.9514298439025879,-0.10309160500764847,0.03905452415347099,0.04121796041727066,0.07699757069349289,-0.045679349452257156,-0.15080545842647552,-0.09208165854215622,-0.11726868897676468,0.029035452753305435,0.2140098661184311,0.16093409061431885,0.2825048863887787,0.017317401245236397,0.15633979439735413,0.019960246980190277,-0.33770692348480225,-0.05640047416090965],[-0.4968697130680084,0.6082315444946289,-0.41416725516319275,-0.37449750304222107,-0.43240323662757874,-0.22974441945552826,-0.4083981215953827,-0.9178216457366943,-0.2813338339328766,-0.34859851002693176,-0.06112132966518402,0.04516534507274628,-0.2164594680070877,-0.13143432140350342,0.009576449170708656,0.059885598719120026,-0.19413535296916962,0.24487024545669556,-0.17401443421840668,0.03869270533323288,0.13485552370548248,-0.19540485739707947,0.12776803970336914,-0.07117079198360443,0.10964487493038177,0.2109498828649521,0.1868664026260376],[-0.432426393032074,0.42038434743881226,-0.33609670400619507,-0.35048675537109375,-0.06591826677322388,-0.049575451761484146,-0.20218849182128906,-0.4835558533668518,0.21968905627727509,-0.16101698577404022,0.051597800105810165,-0.06965665519237518,-0.10809329152107239,-0.28439298272132874,-0.1514466553926468,-0.012960486114025116,-0.2348119616508484,-0.04177645966410637,-0.007976454682648182,0.1677221804857254,0.21240834891796112,-0.1015666127204895,0.22742363810539246,0.13423891365528107,-0.11729461699724197,-0.2938386797904968,0.157441183924675],[-0.6782194375991821,1.0602319240570068,-0.12551330029964447,0.18760645389556885,-0.14730346202850342,-0.7293274402618408,-0.33948850631713867,0.1657344251871109,-0.1692664623260498,-0.05100135877728462,0.03951962664723396,-0.09840256720781326,-0.15004923939704895,-0.04006367176771164,0.0885111540555954,-0.0694521963596344,-0.05364031344652176,-0.046997446566820145,0.17730219662189484,-0.1419772356748581,-0.053182754665613174,-0.15102975070476532,-0.15367862582206726,-0.12687557935714722,0.18694612383842468,-0.25673264265060425,-0.05641179159283638],[0.023526770994067192,-0.9033541679382324,-0.24287793040275574,0.22525012493133545,-0.2514166235923767,-0.22811205685138702,-0.048042550683021545,0.2536378800868988,0.24339509010314941,0.04432035982608795,-0.0899759903550148,0.19122552871704102,-0.15404081344604492,-0.14190462231636047,-0.016689322888851166,0.10091542452573776,-0.2635818421840668,0.13054955005645752,0.056745026260614395,-0.31085440516471863,-0.29452767968177795,-0.2005525529384613,0.09361445158720016,0.09027963131666183,0.06002473086118698,0.1378302127122879,0.14140446484088898],[-0.9116408228874207,0.23203760385513306,-0.7758609056472778,-0.5634328722953796,-1.3451955318450928,-0.8870410323143005,0.09157640486955643,-0.5057381391525269,0.09285817295312881,-0.3617115020751953,-0.12196159362792969,0.13234853744506836,0.10856311023235321,-0.27781039476394653,-0.2763252854347229,-0.03325876221060753,-0.3578152656555176,0.27994197607040405,0.23908160626888275,0.2957925796508789,-0.2739510238170624,0.03046865575015545,-0.09561725705862045,-0.43771451711654663,0.21352100372314453,-0.5378124713897705,-0.11835144460201263],[-0.7328647375106812,0.2737397849559784,-0.35610464215278625,-0.4352720379829407,-0.766883909702301,-0.530099093914032,-0.0438847690820694,-0.4236593544483185,-0.037550777196884155,-0.3184967041015625,-0.06975606828927994,-0.08029795438051224,-0.05891323462128639,-0.15323759615421295,-0.16873712837696075,-0.08075520396232605,-0.03744184598326683,0.18052230775356293,0.09243084490299225,0.20577192306518555,-0.24848586320877075,0.22601701319217682,-0.05150800570845604,-0.12205422669649124,-0.07164737582206726,-0.31480860710144043,-0.08219623565673828],[-0.2746007740497589,-1.0507304668426514,0.07976893335580826,0.09053727984428406,0.5046861171722412,-0.0014375762548297644,-0.18648426234722137,0.08942148834466934,0.07225135713815689,0.21493679285049438,-0.044220782816410065,0.013893075287342072,0.06569333374500275,-0.1089019626379013,-0.18119433522224426,-0.006069893948733807,0.00532778212800622,-0.15723097324371338,-0.12409816682338715,-0.12401766330003738,0.1476147174835205,-0.01843605749309063,-0.06549529731273651,0.09069840610027313,0.03508200868964195,0.13628743588924408,0.08013523370027542],[-0.5019176602363586,-0.2436695694923401,-0.13594457507133484,0.03435278311371803,-0.17331218719482422,0.20196257531642914,-0.3635844886302948,-0.4345671236515045,-0.04393472895026207,-0.37877821922302246,0.08472093939781189,0.012235340662300587,0.060762327164411545,-0.038923658430576324,0.04922511801123619,-0.029970800504088402,0.11411961168050766,0.14290745556354523,0.08473720401525497,-0.15538597106933594,0.11428949236869812,-0.060743097215890884,-0.15005168318748474,0.0317794531583786,-0.22051267325878143,-0.0972723662853241,0.17090700566768646],[-0.43418559432029724,-0.04758746176958084,-0.39807093143463135,-0.15368758141994476,-0.20857888460159302,0.3826112151145935,-0.22627682983875275,-0.7617364525794983,-0.2657175660133362,-0.6063357591629028,0.23460961878299713,-0.02924983575940132,0.09747718274593353,0.08729679882526398,-0.16182345151901245,-0.021883413195610046,-0.17707544565200806,0.06456506997346878,-0.10982510447502136,0.1667085736989975,0.2705013155937195,-0.06416401267051697,0.07957460731267929,0.1149497851729393,-0.04960903525352478,-0.04304661229252815,-0.1759554147720337],[-0.4885876476764679,1.4159185886383057,0.024417009204626083,-0.3704433739185333,-0.5928089618682861,-0.8139415383338928,-0.5014707446098328,-0.7683322429656982,0.09964040666818619,0.10302842408418655,0.05627071112394333,0.17719444632530212,-0.26067015528678894,-0.1568804830312729,0.05126960948109627,-0.13550788164138794,-0.08917868137359619,0.2636808753013611,-0.009377504698932171,0.029113920405507088,0.3321331739425659,0.08249020576477051,0.11553992331027985,-0.1903357207775116,-0.12373922020196915,-0.3921049237251282,0.03195209428668022],[0.018406778573989868,-0.5699863433837891,-0.170504629611969,-0.2192758321762085,-0.1217944473028183,-0.18843060731887817,-0.1768069714307785,-0.28500109910964966,-0.4584113657474518,-0.2876582145690918,-0.13367363810539246,-0.11151663959026337,0.16198529303073883,-0.06505563855171204,-0.1556146889925003,-0.012390502728521824,0.026559237390756607,-0.231081023812294,0.05808517709374428,0.030305147171020508,0.10527325421571732,0.15908671915531158,0.1202133446931839,-0.1461147516965866,-0.0328264944255352,0.07581179589033127,-0.006182510871440172],[-0.08825216442346573,-0.519156277179718,1.2635258436203003,1.4576705694198608,-0.36833369731903076,-2.145113468170166,-0.8079414963722229,-0.43291935324668884,-1.2443753480911255,-0.4453064203262329,0.035628121346235275,-0.0678853988647461,-0.19811873137950897,-0.02303338050842285,0.11575561761856079,-0.05375311151146889,0.24837026000022888,-0.06051693111658096,-0.2186030149459839,-0.28412747383117676,0.5550671219825745,-0.08744993060827255,-0.22441205382347107,0.19608169794082642,-0.33502158522605896,1.0415343046188354,-0.1874786913394928],[0.2779421806335449,-0.49101054668426514,-0.18686620891094208,0.3873359262943268,-0.9913486838340759,-1.6614243984222412,-0.10583115369081497,-0.9768330454826355,-0.8536046743392944,-1.529028296470642,-0.15463216602802277,-0.10391315817832947,0.3085286617279053,0.27717745304107666,-0.20091797411441803,0.16984529793262482,-0.1545950472354889,-0.2426014095544815,-0.13165099918842316,0.22929136455059052,-0.015663685277104378,-0.03426350653171539,0.04044783487915993,0.05739537999033928,0.3419065475463867,0.45132550597190857,-0.21519722044467926],[-0.5299125909805298,0.7131515145301819,0.11032308638095856,0.02420152723789215,0.4968780279159546,-0.0415487214922905,0.011907724663615227,0.796550452709198,-0.19226501882076263,0.34331634640693665,0.061678651720285416,-0.2119939774274826,0.10459917038679123,-0.1272498369216919,-0.0853978618979454,0.024274077266454697,0.0725952610373497,-0.1255628615617752,-0.18387754261493683,-0.18953002989292145,-0.11561449617147446,0.07096360623836517,-0.20302629470825195,-0.15352213382720947,-0.18175366520881653,-0.41518959403038025,0.09235292673110962],[-0.443411648273468,-0.12154570966959,-0.06685898452997208,-0.015942534431815147,-0.15262266993522644,0.23515507578849792,-0.41673463582992554,-0.13055141270160675,0.020117755979299545,-0.361776202917099,0.16809727251529694,0.05451423302292824,0.05657865107059479,0.001936555141583085,-0.22280584275722504,-0.06256390362977982,-0.07011748850345612,0.10553976148366928,-0.04126320406794548,0.025110656395554543,0.2196747362613678,0.12315555661916733,-0.020752856507897377,0.001239248551428318,0.03322556987404823,0.09821879863739014,-0.08919305354356766],[-0.38907426595687866,-1.7180567979812622,-0.2833344042301178,0.11592115461826324,0.85638028383255,1.5365805625915527,-0.3011663556098938,0.0010483794612810016,-0.09316392987966537,-0.21992360055446625,0.26568403840065,0.2744288444519043,0.17828257381916046,0.07704568654298782,0.1454482078552246,-0.054786473512649536,0.2429877370595932,-0.12047600001096725,0.363786518573761,-0.15221945941448212,-0.4515809416770935,-0.19658686220645905,-0.15051187574863434,-0.11815711110830307,0.16898439824581146,0.023145319893956184,0.0004566694260574877],[0.0030130750965327024,-0.6659413576126099,-0.20825223624706268,-0.17124518752098083,-0.15857776999473572,-0.08673854172229767,-0.2923421263694763,-0.006806747987866402,-0.2550310790538788,-0.029490439221262932,0.030975855886936188,0.012114979326725006,0.11836700886487961,-0.1862778514623642,-0.07319957762956619,-0.1333884596824646,0.028666852042078972,0.09500984847545624,-0.30556684732437134,-0.040365226566791534,-0.041723962873220444,-0.13395695388317108,-0.06896328181028366,-0.09613704681396484,0.14228840172290802,0.06529582291841507,-0.192810520529747],[-0.049642156809568405,-1.467722773551941,0.18997007608413696,0.26942506432533264,0.2615766227245331,0.21912819147109985,0.4678070843219757,0.27351129055023193,0.3274189829826355,-0.09121982753276825,0.18216298520565033,-0.15449795126914978,-0.028049075976014137,0.19414786994457245,-0.04398036003112793,0.029415864497423172,-0.026657521724700928,-0.202091246843338,0.1484808325767517,-0.1334264725446701,0.08492614328861237,-0.26182806491851807,-0.32275813817977905,-0.15135741233825684,-0.16740994155406952,0.2450256049633026,-0.09554283320903778],[-1.0219534635543823,1.6681177616119385,-0.20399244129657745,-0.44323673844337463,0.26865091919898987,0.2956242263317108,0.04147658124566078,-0.5837035775184631,-0.08835044503211975,-0.38582560420036316,-0.024380158632993698,0.08930493891239166,-0.250897616147995,0.1318703293800354,-0.09315740317106247,-0.07777408510446548,-0.17315398156642914,-0.04008670151233673,0.03509828820824623,-0.09499358385801315,-0.1179480105638504,-0.018368104472756386,-0.004907903261482716,0.2763594090938568,0.12328538298606873,-0.5514532923698425,0.04119297116994858],[-0.45120057463645935,0.16671350598335266,-0.1881202757358551,-0.19856183230876923,-0.6945825815200806,-0.4016566574573517,-0.1604171097278595,-0.5696969628334045,-0.23055145144462585,-0.4730604290962219,-0.13728049397468567,0.08810964226722717,-0.04186331108212471,-0.2118970900774002,-0.17130717635154724,-0.09912765771150589,-0.19773612916469574,0.1570746749639511,-0.15058192610740662,-0.2160605490207672,-0.021990561857819557,-0.00040974357398226857,0.18676351010799408,0.11623215675354004,-0.052816346287727356,-0.26667505502700806,0.16092966496944427],[0.42885276675224304,-1.1531716585159302,0.13364087045192719,0.12856338918209076,0.041356075555086136,-0.23257958889007568,-0.1862511783838272,0.6361671686172485,-0.05630259960889816,0.3989691138267517,-0.19278110563755035,0.0130582544952631,-0.06675411015748978,0.07861760258674622,-0.06906183809041977,0.16924574971199036,0.11155825108289719,-0.16087356209754944,0.09998328238725662,-0.20366843044757843,0.0066265081986784935,0.07588571310043335,0.09199950844049454,-0.013330385088920593,-0.14708274602890015,0.38448888063430786,0.07574783265590668],[-0.2741537094116211,0.4272933900356293,0.16918765008449554,0.1836806833744049,0.2791801989078522,0.030714696273207664,-0.18925584852695465,-0.09385191649198532,0.08675521612167358,0.10573796927928925,0.08803906291723251,-0.036722876131534576,0.207712784409523,0.14480848610401154,-0.1754608303308487,-0.09295685589313507,-0.1796344518661499,0.04177281633019447,-0.2093067318201065,-0.3136531710624695,0.11317364126443863,-0.24544179439544678,-0.11504954099655151,0.0076307328417897224,-0.009680865332484245,-0.03504575416445732,-0.06852177530527115],[-0.3863799273967743,-0.03911624476313591,-0.013705412857234478,-0.18813051283359528,-0.6221954226493835,-1.062268614768982,-0.4015735983848572,-0.4823957681655884,-0.3069557249546051,-0.9375343918800354,0.10352065414190292,-0.1694602519273758,0.24873656034469604,0.305277019739151,-0.001701985951513052,0.16186143457889557,-0.11258214712142944,-0.15225720405578613,0.16189369559288025,-0.17279580235481262,0.01927068829536438,0.08792317658662796,0.07650628685951233,0.05309360846877098,-0.15716765820980072,0.11150192469358444,0.12514790892601013],[0.09131824970245361,-0.8925804495811462,0.0873255580663681,0.058626554906368256,-0.24567118287086487,0.3523361086845398,0.09319465607404709,0.03526485711336136,-0.12214048206806183,-0.7661369442939758,0.1914677768945694,0.01206908654421568,0.14896497130393982,-0.13639745116233826,-0.1573278158903122,-0.09804771095514297,-0.05952780321240425,0.1304594725370407,-0.01596130058169365,0.17300519347190857,0.010408365167677402,0.26137784123420715,-0.00017283167107962072,-0.07769208401441574,-0.14580000936985016,0.025987016037106514,-0.15436071157455444],[-0.5011489987373352,0.1954977959394455,0.04809380695223808,-0.04860837757587433,0.23664455115795135,-0.12383830547332764,-0.33470630645751953,-0.0047901831567287445,0.030627286061644554,-0.09278438985347748,-0.08322970569133759,-0.12229730188846588,-0.02357551082968712,0.08012452721595764,-0.20977264642715454,-0.014677966944873333,-0.16658687591552734,-0.016519619151949883,0.010715401731431484,0.052097138017416,0.2628207504749298,-0.004894118290394545,-0.02454419806599617,-0.07368135452270508,-0.17689503729343414,-0.24774065613746643,0.09300410747528076],[-0.17151197791099548,-0.1180838793516159,0.23960982263088226,0.17862598598003387,0.2015027105808258,-0.5543452501296997,-0.14680752158164978,0.13027223944664001,-0.23434537649154663,0.2499096542596817,-0.18406184017658234,-0.14746811985969543,0.1091519221663475,-0.09169774502515793,0.030689464882016182,-0.13096341490745544,-0.1255568116903305,0.022959712892770767,-0.09023945033550262,-0.10037226974964142,-0.005958299618214369,-0.040466099977493286,0.04359882324934006,-0.2744147479534149,-0.2298388034105301,0.19008812308311462,-0.20565934479236603]],"biases":[-0.32829809188842773,-0.6197044849395752,-1.0071755647659302,-0.4619758129119873,-0.3071627914905548,-0.5355343818664551,-0.42203274369239807,-0.244700089097023,-0.6923224925994873,-0.3277980089187622,-0.43210577964782715,-0.21139930188655853,-0.2928208112716675,-0.04740506783127785,-0.49896353483200073,-0.2948395013809204,-0.25257545709609985,-0.701259970664978,-0.5327340960502625,0.6253581643104553,0.20376461744308472,-0.22753572463989258,-0.7326334714889526,-0.29372459650039673,-0.30193808674812317,-0.4401213228702545,-0.12897458672523499,-0.0778331384062767,-0.28906285762786865,-0.3769884407520294,-0.15837857127189636,0.3608730733394623,0.12675684690475464,-0.26032230257987976,-1.4502060413360596,-0.14456351101398468,-0.23273865878582,-0.12689656019210815,-0.17381373047828674,-0.20002637803554535,0.1844983845949173,-0.2315501868724823,-0.3037686049938202,-0.5119044780731201,3.629666805267334,-0.6399036049842834,-0.39930403232574463,-0.21535010635852814,-0.2989380359649658,-0.4338471591472626,-0.23063471913337708,-0.46037039160728455,-0.6247133612632751,-0.4814583957195282,0.2664848566055298,-0.07077023386955261,-0.3441069722175598,0.11707558482885361,-0.741012454032898,-0.9664312601089478,-0.3297412693500519,0.07125521451234818,-0.5164980292320251,-0.4755411744117737,-0.3812025785446167,-0.37863218784332275,-0.5172591805458069,-0.4371460974216461,-0.3368395268917084,-0.2898908853530884,0.12209940701723099,-0.10781174898147583,-0.5242600440979004,-0.7332723140716553,-0.3865692913532257,-0.40673303604125977,2.8574535846710205,0.2819652259349823,-0.20256294310092926,-0.594828188419342,-0.620162308216095,-0.3154227137565613,-0.30909982323646545,-0.06205928325653076,-0.44701847434043884,-0.41547849774360657,-0.29426681995391846,-0.20132750272750854,0.31017419695854187,-0.5154247283935547,-0.38288614153862,-0.03093809075653553,-0.6528475880622864,-0.2920531928539276,-0.7758582830429077,-0.24200715124607086,-0.15477252006530762,-0.29463180899620056,0.06747329980134964,-0.5136348009109497,-0.5118117928504944,-0.05308666080236435,-0.34756186604499817,-0.6308407187461853,-0.6071630716323853,-0.404294490814209,-0.40089181065559387,-0.4077224135398865,-0.1909564882516861,-0.2203354686498642,-0.0912586972117424,-0.54705810546875,-0.2342349737882614,0.10183151811361313,0.07328113168478012,-0.5867733359336853,-0.3342288136482239,0.11952602863311768,-0.15987201035022736,-0.34870272874832153,-0.6632295250892639,-0.2213221937417984,-0.3637112081050873,-0.5345703363418579,-0.11321955174207687,-0.26398491859436035,-0.4659952223300934,-0.4687154293060303]},{"weights":[[0.1354387402534485,-0.00872233510017395,-0.8227400183677673,-0.12144270539283752,0.17208124697208405,-0.21130049228668213,0.1710595041513443,-0.08539361506700516,-0.12794522941112518,0.1506645381450653,-0.39642512798309326,-0.010675338096916676,0.09225770086050034,0.08837499469518661,0.07829968631267548,-0.17554055154323578,0.3923044800758362,-0.0839579701423645,-0.03553243726491928,0.8327014446258545,-0.030454019084572792,0.043528154492378235,-0.013240664266049862,0.1697133183479309,0.10901492089033127,0.029305454343557358,-0.12650491297245026,0.10952447354793549,-0.09129365533590317,-0.18926763534545898,-0.057232994586229324,-0.36641860008239746,-0.13987891376018524,-0.024395104497671127,0.3824293911457062,-0.009575952775776386,-0.2255229651927948,0.0072572724893689156,-0.17523783445358276,0.032267939299345016,0.020847676321864128,0.1660887897014618,0.04525486379861832,-0.09237562865018845,1.0831060409545898,-0.04744192212820053,0.004589952062815428,0.2705913186073303,0.11408238857984543,0.032246191054582596,0.010819590650498867,0.12348037213087082,-0.04781705141067505,0.01559403631836176,-0.3691119849681854,-0.5247598886489868,-0.20310229063034058,-0.28852587938308716,-0.0845951959490776,0.2772972583770752,0.10182716697454453,0.18778304755687714,-0.2512798011302948,-0.06757951527833939,-0.025952139869332314,-0.1525077223777771,0.10163619369268417,-0.1321500539779663,-0.0137941874563694,0.17019063234329224,0.1421537697315216,-0.03834659233689308,-0.18872015178203583,-0.20289087295532227,0.280158668756485,-0.1900617629289627,-0.9819416999816895,0.5543096661567688,-0.018665101379156113,-0.07594089210033417,-0.2189437299966812,0.2510601282119751,-0.025273170322179794,0.28939083218574524,-0.25503069162368774,0.028273196890950203,0.22956198453903198,0.11131998151540756,0.4388387203216553,0.026120325550436974,0.6279965043067932,0.22877660393714905,-0.2717961370944977,-0.018163055181503296,0.35142993927001953,-0.16338156163692474,0.2056661993265152,0.07561541348695755,0.2666036784648895,0.010436434298753738,-0.21681378781795502,0.1303299367427826,0.17284515500068665,0.11321063339710236,0.11899929493665695,-0.05297352746129036,-0.013977096416056156,0.201919823884964,0.11996622383594513,0.14979560673236847,0.1501750349998474,-0.009992633946239948,0.013782224617898464,0.5102359652519226,0.3888288736343384,-0.2140207439661026,-0.007134241983294487,-0.07205536216497421,-0.1606346070766449,-0.1379234790802002,-0.13620683550834656,0.21078869700431824,-0.18347659707069397,-0.09809257090091705,0.07444629073143005,0.10344336926937103,0.168772891163826,-0.1766016036272049],[-0.03887423872947693,0.08433104306459427,0.1888754665851593,0.2026980072259903,0.034368060529232025,0.0423322357237339,-0.09643280506134033,0.11986862123012543,0.24009278416633606,0.10854525119066238,0.11207440495491028,0.06889033317565918,0.15687036514282227,0.1816175878047943,0.009761109948158264,0.2098463624715805,-0.22784262895584106,0.26889196038246155,-0.205659881234169,-0.2710598111152649,0.036369528621435165,-0.0983920767903328,-0.23010550439357758,-0.07312442362308502,-0.05316195636987686,0.10616883635520935,-0.12640707194805145,0.08141198009252548,0.0672944188117981,0.06564809381961823,-0.17606985569000244,0.1514081358909607,-0.19868764281272888,-0.3481002151966095,-0.10305463522672653,0.10975348204374313,-0.007342552300542593,0.037381865084171295,-0.15388427674770355,-0.05947556719183922,0.16484850645065308,0.10607471317052841,0.0744914636015892,0.11372127383947372,-0.511262059211731,0.07955985516309738,0.23228110373020172,0.10756570100784302,0.0865948274731636,0.09272627532482147,-0.02834627777338028,-0.122739277780056,-0.17416389286518097,-0.08984871953725815,0.1305227279663086,-0.25572121143341064,0.12522034347057343,0.05573238059878349,-0.299325168132782,0.09294731914997101,0.25648635625839233,-0.2103310078382492,0.31255006790161133,0.12041019648313522,0.04580436646938324,-0.04343311861157417,-0.08260527998209,-0.3297882378101349,-0.26826053857803345,-0.23089630901813507,-0.1443886011838913,-0.11008663475513458,-0.077877476811409,-0.10729575157165527,-0.11155335605144501,-0.08305645734071732,-0.2331811487674713,-0.36690232157707214,-0.04613334313035011,-0.29875651001930237,-0.12770794332027435,-0.10903602838516235,-0.19874069094657898,0.008806045167148113,-0.13529597222805023,-0.1606820523738861,-0.02684932015836239,0.1564100831747055,-0.07171668112277985,-0.15757912397384644,-0.1649826020002365,-0.18306678533554077,0.013272917829453945,0.041619542986154556,0.12049006670713425,-0.056944068521261215,0.08198583126068115,0.0027786160353571177,-0.22440817952156067,0.035190194845199585,0.06459420919418335,-0.0055097672156989574,-0.291706919670105,0.00948196928948164,0.009115834720432758,-0.1321220099925995,-0.08399439603090286,-0.0269292201846838,0.1769258826971054,0.06504687666893005,0.10457228124141693,-0.16662603616714478,-0.0036861151456832886,-0.2389921098947525,0.0497521311044693,-0.0749039351940155,0.014395290985703468,-0.12327831238508224,-0.14914990961551666,0.027936700731515884,0.15418829023838043,-0.2935316562652588,-0.002272969111800194,0.009851120412349701,0.14912179112434387,0.15210792422294617,0.17681089043617249,0.06737468391656876],[0.06861331313848495,0.026365969330072403,-0.06311797350645065,0.15769577026367188,-0.017365016043186188,0.07979447394609451,0.19288665056228638,-0.18165524303913116,-0.052671223878860474,-0.1776990443468094,-0.2674160301685333,-0.03529996797442436,-0.1835610568523407,0.04460364207625389,-0.12480569630861282,0.037996869534254074,0.016489438712596893,-0.11517302691936493,-0.2067529559135437,0.06653410941362381,-0.22278505563735962,-0.11236956715583801,-0.05386577919125557,0.02636484056711197,0.09791669249534607,-0.0227354783564806,-0.1017676591873169,-0.07517952471971512,-0.16164858639240265,0.07856662571430206,-0.09787547588348389,-0.02197766862809658,-0.1672285944223404,0.06813382357358932,0.25486522912979126,-0.1980234533548355,-0.13645462691783905,-0.11646316200494766,-0.18156591057777405,0.015052803792059422,-0.2850891649723053,0.1259031742811203,-0.12584789097309113,0.0408329963684082,0.2122572809457779,0.11499880999326706,-0.1380065232515335,-0.13214215636253357,-0.10988515615463257,0.10231178253889084,0.07793283462524414,0.19309617578983307,-0.2599084973335266,0.11996950209140778,-0.1522529423236847,-0.3053286075592041,0.17839135229587555,-0.31562644243240356,-0.2085186243057251,0.03647210821509361,-0.18490110337734222,0.15113472938537598,-0.05628329515457153,0.11605767160654068,-0.10311971604824066,0.05167323350906372,0.19741223752498627,-0.08995223790407181,0.1414778232574463,0.1515417993068695,0.030215628445148468,-0.02306969463825226,-0.15832799673080444,0.19190150499343872,0.12285013496875763,0.11060775071382523,-0.5680597424507141,0.20043516159057617,0.1159088984131813,-0.03677886724472046,0.01946418732404709,0.08718830347061157,-0.08016694337129593,0.0558304525911808,-0.13894963264465332,0.02743169292807579,-0.11200511455535889,-0.17758704721927643,0.14187920093536377,0.11835513263940811,0.255074143409729,0.010138895362615585,0.09755411744117737,-0.25099754333496094,-0.015227368101477623,0.08921705186367035,0.039323024451732635,0.08041051030158997,-0.1693493276834488,0.06120329350233078,-0.0706930011510849,-0.05430201441049576,0.01377887837588787,0.04215412586927414,0.05331190302968025,-0.013239533640444279,-0.0719139501452446,-0.06989749521017075,0.14228010177612305,-0.09936143457889557,-0.19991274178028107,0.1254163235425949,-0.1135328859090805,0.3500179648399353,0.07231442630290985,-0.15692946314811707,-0.06215425953269005,0.014991789124906063,0.020782051607966423,-0.006266818847507238,-0.10907839238643646,0.1290232390165329,0.06001049280166626,0.1424742043018341,0.1657724380493164,-0.049671415239572525,0.11780676245689392,0.0877796933054924],[-0.16552942991256714,-0.03330554440617561,-0.12651553750038147,0.147504061460495,0.13887767493724823,-0.011063039302825928,0.07081002742052078,0.09621484577655792,-0.1528092324733734,0.12128698080778122,-0.26344332098960876,-0.007819842547178268,0.13006040453910828,0.13699842989444733,0.042344409972429276,0.14454300701618195,-0.004222795367240906,-0.05659559741616249,0.1197228953242302,0.0042749023996293545,-0.11976485699415207,-0.026233429089188576,0.036451566964387894,-0.10439468920230865,0.1438184678554535,-0.09376798570156097,-0.11951000988483429,-0.13520416617393494,-0.0065233600325882435,0.13718672096729279,-0.055174510926008224,-0.0036624232307076454,-0.13332462310791016,-0.15904641151428223,-0.1816139668226242,-0.011964344419538975,0.07834683358669281,-0.06362070143222809,-0.026086870580911636,0.1425868272781372,0.1195467859506607,0.13947753608226776,-0.13378609716892242,-0.1839233636856079,-0.020147651433944702,0.04942880943417549,-0.18680495023727417,0.06558112800121307,-0.011765724048018456,-0.17354553937911987,0.0058279819786548615,-0.15549544990062714,-0.22008275985717773,0.09484481811523438,0.12437697499990463,-0.24572162330150604,0.06069382652640343,-0.19456353783607483,0.11327026784420013,0.057100601494312286,-0.17537234723567963,0.1846630871295929,0.13773854076862335,0.10903207212686539,0.04265623912215233,0.04747666046023369,0.05994907394051552,0.05976289138197899,0.003644036129117012,-0.10394349694252014,-0.21554546058177948,0.07495346665382385,0.05575285851955414,-0.08297841250896454,0.04405543580651283,-0.13553042709827423,-0.19374980032444,-0.012316360138356686,-0.10854029655456543,-0.25481608510017395,-0.1316959261894226,-0.1349979043006897,-0.10674916952848434,0.098504938185215,-0.1833973377943039,0.045786306262016296,0.06133517995476723,-0.0660027489066124,0.065115787088871,0.011513806879520416,0.05098073557019234,0.08786498010158539,0.044104162603616714,-0.2642596662044525,0.1279638707637787,0.09142865240573883,-0.1678922027349472,0.1141989454627037,-0.12070327997207642,-0.14637787640094757,-0.23139816522598267,0.15368862450122833,-0.05758719891309738,-0.046915970742702484,0.037484776228666306,-0.17237234115600586,0.19513821601867676,-0.15353325009346008,0.13675466179847717,-0.048092231154441833,-0.07507449388504028,-0.11533230543136597,-0.15431301295757294,0.013504233211278915,-0.027032308280467987,0.10530628263950348,0.019516577944159508,0.029784996062517166,-0.08157320320606232,-0.1646949201822281,-0.07199890911579132,-0.08257559686899185,-0.1300089955329895,-0.21369318664073944,-0.14231471717357635,-0.17832855880260468,-0.16223278641700745,-0.2070971578359604],[0.24803441762924194,-0.04988783597946167,-0.18405528366565704,-0.14509718120098114,-0.17774824798107147,-0.39228710532188416,0.367642343044281,-0.21740493178367615,-0.3626725971698761,-0.010891152545809746,-0.4910912811756134,-0.00770227937027812,0.027178071439266205,0.0463479682803154,-0.13199886679649353,-0.11719921976327896,0.31173279881477356,0.09199238568544388,-0.039145853370428085,0.4530412554740906,-0.1279226839542389,0.13266438245773315,-0.318923681974411,-0.10918691009283066,-0.020801564678549767,-0.029724067077040672,-0.16547083854675293,-0.16712963581085205,-0.3974262773990631,-0.023686589673161507,-0.048209257423877716,-0.1421358287334442,-0.25752609968185425,-0.2203727662563324,0.5754331946372986,-0.22267931699752808,-0.41254574060440063,-0.1402226984500885,-0.3789273500442505,0.002338024787604809,-0.02496478334069252,0.05427036061882973,-0.18830318748950958,-0.045528046786785126,0.8080037236213684,-0.06765030324459076,-0.12930625677108765,0.26740455627441406,-0.15283986926078796,0.055882085114717484,0.4280541241168976,0.2601121962070465,0.02227330394089222,0.10152523219585419,0.008628832176327705,-1.0002754926681519,-0.09698981791734695,-0.2553446888923645,-0.5378503799438477,0.6503673195838928,-0.005440670996904373,0.3542958199977875,0.38317620754241943,0.2557467222213745,-0.08378800749778748,-0.1157439574599266,0.12407084554433823,-0.12946534156799316,0.46686047315597534,0.22752824425697327,-0.04950447380542755,0.08750886470079422,-0.16921988129615784,-0.045692119747400284,0.21805433928966522,-0.23222722113132477,-0.8349764347076416,0.12137964367866516,0.17432738840579987,-0.31471914052963257,-0.03886207193136215,-0.22053493559360504,0.03774808719754219,-0.126847505569458,-0.044573649764060974,0.10464324057102203,0.23193411529064178,0.061878591775894165,0.032671887427568436,0.06278613954782486,0.28630951046943665,0.026505229994654655,-0.014854740351438522,-0.1763812154531479,0.665358304977417,-0.22746045887470245,0.22834445536136627,-0.07789403200149536,-0.1367282271385193,0.4722345769405365,0.0590384304523468,0.14864100515842438,0.07076651602983475,0.1511990875005722,-0.18944348394870758,-0.19019360840320587,0.3510739207267761,0.2952631115913391,-0.07460376620292664,0.09641003608703613,0.37123677134513855,0.10537922382354736,0.07987308502197266,0.13275574147701263,-0.00619145855307579,0.1295439898967743,0.05869947373867035,-0.09836668521165848,-0.1548978090286255,-0.24934136867523193,0.4132201671600342,0.17583854496479034,-0.12359406054019928,-0.006293915677815676,0.174087256193161,-0.11052832752466202,0.09920075535774231,-0.2890816330909729],[0.14344234764575958,0.15850688517093658,0.07974731177091599,-0.13156935572624207,0.04907215014100075,-0.21815267205238342,-0.16441653668880463,-0.10177648067474365,-0.035250190645456314,0.1207445040345192,0.11281568557024002,-0.19142599403858185,0.06920551508665085,0.048307280987501144,0.1740099936723709,0.17100359499454498,-0.07655823975801468,0.16525231301784515,-0.07739775627851486,0.13690906763076782,-0.12326937913894653,-0.15419621765613556,0.15672913193702698,0.05622871592640877,-0.1478927731513977,-0.09462735801935196,-0.06309264153242111,-0.09671556949615479,-0.21662433445453644,-0.2103501856327057,0.17214202880859375,-0.1394995003938675,0.0486447848379612,-0.1223401427268982,-0.11739418655633926,-0.05367084592580795,-0.22608597576618195,0.057398125529289246,-0.07531528174877167,-0.009806377813220024,-0.13078631460666656,-0.1963358372449875,-0.09742642939090729,0.15195316076278687,0.038070812821388245,0.07762118428945541,0.008783063851296902,0.14457523822784424,-0.05468406155705452,-0.09439507871866226,-0.09237008541822433,0.06494687497615814,-0.05446202680468559,-0.21123626828193665,-0.022514646872878075,-0.27783966064453125,-0.005598806776106358,-0.10113050788640976,-0.1682741343975067,0.13850748538970947,-0.10161960870027542,-0.00031085513182915747,-0.0809519961476326,-0.1725355088710785,0.00602401327341795,-0.13937722146511078,-0.07750026881694794,-0.2323843240737915,-0.11752103269100189,0.10779666900634766,-0.2519199848175049,-0.09511586278676987,-0.0010217030066996813,-0.036999303847551346,0.0533297173678875,0.09404914081096649,-0.14124885201454163,0.20027777552604675,-0.08206409215927124,-0.2452998161315918,0.03484785556793213,-0.09183350205421448,0.04929704964160919,0.0009983467170968652,-0.027236342430114746,0.1156451478600502,-0.21070948243141174,-0.15371324121952057,0.21769864857196808,0.11751174926757812,-0.06555987894535065,0.07484118640422821,-0.10068297386169434,0.005178556311875582,0.050976935774087906,-0.12883229553699493,-0.22093816101551056,-0.04428575187921524,-0.20103000104427338,-0.11629186570644379,0.12719619274139404,-0.09607458114624023,-0.15346041321754456,-0.11096879094839096,-0.04977928847074509,-0.10442952811717987,0.06894578039646149,0.054409705102443695,0.17586103081703186,-0.13612037897109985,-0.2011532187461853,0.039418622851371765,-0.09740036725997925,-0.15869174897670746,-0.02178916148841381,-0.08547630906105042,-0.10886484384536743,-0.1918817013502121,0.0630103349685669,-0.023931164294481277,0.108040951192379,-0.1503486931324005,-0.1336458921432495,-0.1399024873971939,0.02981957048177719,-0.11585583537817001,0.17103831470012665,-0.18765033781528473],[-0.0770580992102623,0.1476956307888031,-0.05820579454302788,-0.00917770154774189,-0.08103608340024948,-0.17209245264530182,0.06803679466247559,0.020654434338212013,0.09931588172912598,0.00997468363493681,-0.17745527625083923,-0.042199280112981796,-0.21009176969528198,0.19370172917842865,0.14271488785743713,0.04065815359354019,-0.1076439917087555,0.20202244818210602,-0.11375138908624649,0.05013665929436684,0.13252100348472595,-0.02779090777039528,-0.13342416286468506,-0.18109945952892303,-0.028286516666412354,0.16061000525951385,-0.2126484215259552,0.0879109650850296,-0.03425013646483421,0.10932984948158264,0.03314182534813881,-0.09869749844074249,-0.057561974972486496,-0.17135266959667206,-0.06052565947175026,-0.15705576539039612,0.031216658651828766,0.11005257070064545,-0.12817728519439697,-0.11722488701343536,0.06259408593177795,0.10431010276079178,-0.07213586568832397,-0.0942702442407608,0.060348037630319595,0.028894096612930298,0.16868309676647186,0.0531909205019474,-0.19020627439022064,-0.06170755997300148,0.09365276247262955,-0.03067653626203537,-0.038119200617074966,0.011162071488797665,-0.19140727818012238,-0.16962088644504547,-0.11009381711483002,-0.12969031929969788,-0.0813765674829483,0.07662848383188248,0.1330064982175827,-0.04851554334163666,0.1472608596086502,-0.13963072001934052,0.14542630314826965,-0.09562799334526062,-0.12421716749668121,0.03498241305351257,0.01766083762049675,-0.10805623978376389,-0.015379758551716805,-0.1685461699962616,0.06015763804316521,-0.12869878113269806,0.022853147238492966,-0.24760301411151886,-0.07290183752775192,0.15792465209960938,0.037085846066474915,-0.1357925534248352,0.10638069361448288,0.06569812446832657,-0.16135086119174957,-0.20701365172863007,-0.146352618932724,-0.05788553133606911,-0.06101500615477562,-0.17915236949920654,-0.12371763586997986,0.12384433299303055,-0.24561575055122375,0.08789731562137604,0.08915615826845169,-0.1973295658826828,0.1812664419412613,0.1446019560098648,0.09801314026117325,-0.15418747067451477,-0.1924663484096527,0.014870588667690754,0.025101935490965843,0.004312075208872557,-0.06336923688650131,-0.10632398724555969,-0.07425718754529953,-0.21695134043693542,-0.1621900051832199,-0.198430597782135,-0.06312110275030136,-0.15290603041648865,0.0061455718241631985,0.028212720528244972,-0.08268895745277405,-0.16047726571559906,0.15391501784324646,0.07900884747505188,0.16012272238731384,-0.06264134496450424,-0.232712522149086,-0.19920861721038818,0.25654467940330505,0.016990097239613533,0.09788230806589127,-0.14222250878810883,0.12855203449726105,-0.0962723046541214,-0.015038380399346352,0.10483881086111069],[-0.13275544345378876,0.127449169754982,0.2965303659439087,-0.0601661317050457,0.06744938343763351,0.1489526480436325,-0.2619229555130005,0.0746823102235794,-0.10390190780162811,0.06957738846540451,0.002840109635144472,0.04984929412603378,0.19899901747703552,0.08898479491472244,-0.04770168662071228,0.005471157841384411,-0.3469502627849579,0.06553831696510315,-0.25013983249664307,-0.5649980902671814,0.19918231666088104,0.09980179369449615,-0.2516289949417114,-0.14708437025547028,0.025833429768681526,-0.11726459115743637,0.13608209788799286,0.14211444556713104,-0.14888401329517365,0.22475816309452057,-0.09403225779533386,0.5164991617202759,0.39031171798706055,-0.2252904176712036,-0.6400205492973328,0.14982560276985168,0.2504613995552063,-0.07042447477579117,0.08893458545207977,0.10332076251506805,0.37860697507858276,-0.20457585155963898,0.0523168109357357,0.0821283683180809,-1.0267484188079834,-0.21414591372013092,0.2717721462249756,-0.08836981654167175,0.2604527175426483,-0.05237061530351639,-0.23699605464935303,-0.077403724193573,0.12781910598278046,-0.06422620266675949,0.14633393287658691,0.14680440723896027,-0.13211920857429504,0.219697967171669,0.00964976754039526,-0.16231082379817963,0.02054496668279171,0.16072623431682587,-0.13828600943088531,0.04403640702366829,-0.008338921703398228,0.05331017076969147,-0.25273171067237854,0.031854741275310516,-0.22125057876110077,0.07333063334226608,0.23456689715385437,-0.2108483612537384,-0.1258850246667862,-0.05176335573196411,-0.06772223114967346,-0.02200211025774479,0.7257703542709351,-0.4576262831687927,-0.032244227826595306,0.18121123313903809,0.07095441967248917,0.016447599977254868,-0.09574520587921143,0.15529118478298187,-0.02599014900624752,0.15566405653953552,-0.061409179121255875,0.1582738161087036,-0.3671950697898865,0.021722616627812386,-0.448051780462265,-0.16480088233947754,-0.040699608623981476,0.28439074754714966,-0.394476056098938,0.15589597821235657,0.006808167323470116,0.1431576907634735,-0.0529712550342083,-0.12103524059057236,-0.26058638095855713,0.17298080027103424,-0.2995075285434723,-0.22349099814891815,-0.20162996649742126,-0.14514797925949097,-0.2235545516014099,-0.04355766624212265,-0.03828568756580353,-0.13603635132312775,-0.14977425336837769,-0.21573877334594727,0.174212247133255,-0.11572057008743286,-0.137027770280838,0.028990047052502632,0.054926224052906036,0.11869875341653824,-0.17792260646820068,0.22420424222946167,-0.3399900197982788,-0.0446879081428051,0.1364673376083374,-0.10012747347354889,-0.04460610821843147,0.2767535448074341,-0.05454288423061371,0.019291579723358154],[-0.16472062468528748,-0.11281365901231766,0.13781937956809998,0.1776764690876007,0.11230918020009995,0.08027227967977524,0.012002733536064625,-0.1475687026977539,0.09025313705205917,-0.030110809952020645,0.05563069507479668,0.0645855963230133,0.18478178977966309,0.007336008828133345,0.07515238225460052,0.09553924202919006,0.09222493320703506,0.05156844109296799,-0.06931901723146439,-0.0284112598747015,-0.0805664211511612,0.04926200956106186,0.14284175634384155,-0.1757907271385193,0.17812049388885498,0.01026891078799963,-0.29724377393722534,-0.040980055928230286,0.031340088695287704,-0.06148937717080116,0.09801340848207474,-0.1889575868844986,0.031208517029881477,-0.04146970808506012,0.022801494225859642,-0.1875242292881012,-0.22713755071163177,0.05205290764570236,-0.08911547064781189,-0.14757199585437775,-0.021541526541113853,0.13144338130950928,-0.07280512899160385,0.13763882219791412,-0.08627230674028397,-0.07126186788082123,0.06061362475156784,0.04461030289530754,-0.13235671818256378,0.04559091851115227,0.002825540490448475,0.14894956350326538,0.02324376441538334,0.13116565346717834,0.09280003607273102,-0.05051329359412193,0.1618708074092865,0.08179160952568054,-0.22201573848724365,-0.15177080035209656,0.2078896462917328,-0.3367473781108856,0.3666171729564667,0.19020996987819672,0.04894833639264107,-0.10671955347061157,0.20252375304698944,-0.12086541205644608,-0.1774815022945404,-0.25829747319221497,-0.2988036572933197,0.017052218317985535,0.0571267195045948,-0.008196850307285786,-0.2021990865468979,-0.04650108516216278,-0.4949876666069031,-0.12572848796844482,0.08920111507177353,-0.19030368328094482,0.045194268226623535,-0.1188667044043541,-0.087923064827919,-0.246774822473526,0.04607511684298515,0.03940333425998688,-0.2217012345790863,0.01770985871553421,0.2920908033847809,-0.1512562334537506,-0.005901615601032972,-0.21048010885715485,-0.15643592178821564,-0.07395590841770172,0.0712447389960289,0.23299336433410645,-0.015228839591145515,-0.10725865513086319,-0.19304479658603668,-0.024785367771983147,-0.1458452045917511,-0.20258326828479767,-0.18325449526309967,0.04508461058139801,0.2238127589225769,-0.04550579562783241,0.1506957858800888,-0.1595533788204193,0.06657998263835907,-0.0883604884147644,-0.2981012463569641,-0.06069585308432579,0.08069690316915512,0.23402391374111176,0.2470570206642151,0.20635466277599335,-0.04102566838264465,-0.02089722268283367,-0.2535690367221832,-0.16806001961231232,0.24363885819911957,0.050499558448791504,-0.17836721241474152,-0.0942012220621109,0.15217645466327667,-0.29366734623908997,-0.05603078007698059,-0.016777891665697098],[-0.13969473540782928,0.07010019570589066,0.26777008175849915,0.12931402027606964,-0.012691464275121689,0.2861464023590088,0.06622017174959183,0.023115456104278564,-0.11261184513568878,-0.06666312366724014,-0.18663710355758667,0.19017550349235535,-0.13176891207695007,-0.023591594770550728,0.0832090899348259,0.19868019223213196,-0.03780277818441391,-0.15369680523872375,0.09067925065755844,-0.2337731420993805,0.1315159946680069,0.23963484168052673,-0.22388772666454315,-0.20211271941661835,0.17480243742465973,0.15388581156730652,0.19738881289958954,-0.19757945835590363,-0.020304188132286072,-0.07626668363809586,0.013582293875515461,0.4366157650947571,0.28379523754119873,-0.24633722007274628,-0.43993106484413147,-0.08813697844743729,0.22060590982437134,-0.0344226099550724,0.11451736837625504,-0.1543581783771515,0.14404210448265076,-0.20486217737197876,-0.1771489828824997,-0.1331356316804886,-0.7351470589637756,-0.14310598373413086,0.1266363114118576,0.15215300023555756,0.11855003237724304,0.02745871990919113,-0.21229256689548492,0.04240253195166588,0.1882253885269165,-0.18068145215511322,0.07524730265140533,0.0869988277554512,0.001969302073121071,0.353601336479187,0.15297149121761322,-0.3004687428474426,0.14467568695545197,-0.17438171803951263,-0.1903550773859024,-0.029888177290558815,0.2077442705631256,-0.007941577583551407,-0.2811775505542755,0.14855168759822845,-0.16822341084480286,0.1115986779332161,-0.07513034343719482,0.0491059310734272,-0.20469529926776886,-0.22565367817878723,0.08090187609195709,-0.10060425102710724,0.7001482844352722,-0.16316457092761993,-0.08578314632177353,-0.019349103793501854,-0.16588962078094482,0.13039685785770416,-0.12156465649604797,0.18008919060230255,-0.09078992158174515,-0.1151944175362587,0.012242927215993404,0.18889975547790527,-0.16912224888801575,-0.14319679141044617,-0.34013453125953674,-0.2302190214395523,-0.10304442048072815,0.23761436343193054,-0.12695200741291046,0.19579708576202393,0.05621057376265526,0.12583035230636597,-0.06943390518426895,-0.21061158180236816,0.01952534355223179,0.12098585814237595,-0.24503648281097412,-0.22793465852737427,0.0468599870800972,-0.13487569987773895,0.021571485325694084,-0.13280293345451355,0.06665384024381638,-0.18193916976451874,-0.01642034761607647,-0.1944843828678131,-0.09408276528120041,-0.335197776556015,0.024159470573067665,0.08432067930698395,-0.0686841607093811,-0.04116523265838623,-0.08652133494615555,0.09370830655097961,0.047823887318372726,-0.06843634694814682,-0.06697055697441101,-0.10253703594207764,0.12587152421474457,0.09974377602338791,-0.20863626897335052,0.0698123574256897],[-0.20900104939937592,-0.08032295852899551,-0.020846763625741005,-0.034146685153245926,0.13813483715057373,0.17922714352607727,-0.08722718060016632,-0.05843624100089073,-0.009947841055691242,0.1629546880722046,-0.04595281556248665,0.145660400390625,-0.11495009064674377,-0.16694380342960358,0.04250630363821983,-0.0862109512090683,-0.1909920573234558,0.2111574113368988,-0.2971540689468384,0.07049151510000229,-0.12454447895288467,-0.11285568028688431,-0.20884141325950623,-0.15203119814395905,0.12074412405490875,0.055554889142513275,-0.06145292893052101,0.02007538266479969,-0.2053021937608719,